%YAML:1.0
---
opencv_ml_svm:
   format: 3
   svmType: C_SVC
   kernel:
      type: LINEAR
   C: 1.
   term_criteria: { iterations:100 }
   var_count: 4096
   class_count: 2
   class_labels: !!opencv-matrix
      rows: 2
      cols: 1
      dt: i
      data: [ 0, 1 ]
   sv_total: 1
   support_vectors:
      - [ 7.24893063e-03, 5.89740835e-03, 6.67182356e-03, 4.77056531e-03,
          4.01609764e-03, 3.30133387e-03, 2.16610497e-03,
          -3.05632013e-04, 3.76892975e-03, 4.22955956e-03,
          3.81512404e-03, 2.06002663e-03, 5.31399762e-03, 5.33497240e-03,
          8.80533829e-03, 1.01279262e-02, 5.46567794e-03, 3.33096972e-03,
          -1.00605574e-03, -1.71481515e-04, 5.55686885e-04,
          1.89328135e-03, 1.81864167e-03, 4.60621639e-04,
          -4.37212992e-04, 2.90710072e-04, 1.85957208e-04,
          3.08065792e-03, 1.27655058e-03, 3.98499687e-04,
          -7.25513324e-04, 4.43292083e-03, 9.04512883e-04,
          3.72859824e-04, 3.64088989e-03, -1.68763089e-03,
          -5.06632403e-03, -1.72261684e-03, -1.55325411e-04,
          7.78562273e-04, 2.63787620e-03, 3.55447456e-03, 2.94938614e-03,
          2.17417534e-03, 2.61528278e-03, -2.21747163e-04,
          2.11859844e-03, 4.21198609e-04, 4.54563694e-03, 2.24757195e-03,
          2.52822344e-03, 6.19085273e-03, 6.13081316e-03, 2.96399370e-03,
          5.94331603e-03, 4.58933506e-03, 2.73165596e-03,
          -8.21457186e-04, 1.55375397e-03, 2.18265643e-03,
          8.44639027e-04, -1.85024098e-03, 1.68282317e-03,
          7.26296450e-04, 1.09591959e-02, 8.97542294e-03, 7.62532605e-03,
          5.15713729e-03, 4.79315408e-03, 3.81902419e-03, 7.52055959e-04,
          1.70671067e-03, 2.26297299e-03, 5.38547430e-03, 3.97799909e-03,
          2.84339767e-03, -2.13906213e-04, 6.28801296e-03,
          8.65431596e-03, 8.52553360e-03, 5.16153313e-03, 4.56351694e-03,
          3.33230151e-03, 1.08628860e-03, 9.15121869e-04, 2.38561165e-03,
          7.38468720e-04, -3.82567698e-04, -1.79887121e-03,
          -7.40846590e-05, 1.39908527e-03, 1.74629653e-03,
          2.26563518e-03, 1.40931632e-03, -5.29564742e-04,
          1.45961368e-03, 2.69222632e-03, 8.87045811e-04, 1.52120052e-03,
          -1.49691512e-03, -1.22314726e-03, 1.04174274e-03,
          3.89341061e-04, 4.16722847e-04, 1.85326335e-03, 2.26439605e-03,
          7.17200164e-04, 2.35199230e-03, 3.30555346e-03, 3.29227682e-04,
          -7.50894542e-04, -8.29153461e-04, 3.01864929e-03,
          2.64089718e-03, -2.15761433e-03, 4.66277357e-03,
          5.62607311e-03, 4.18117177e-03, 3.67682497e-03, 2.85268924e-03,
          3.81378992e-03, 1.34894310e-03, 5.16303699e-04, 1.76415930e-03,
          8.30565812e-04, -3.07976501e-03, 5.35145053e-04,
          -1.69066258e-03, 1.07974978e-02, 1.23399477e-02,
          9.41548776e-03, 5.80360601e-03, 6.55413419e-03, 8.25552829e-03,
          5.27466787e-03, 6.07868424e-03, 3.18426127e-03, 3.75795946e-03,
          5.42576239e-03, 2.03479896e-03, 2.82228750e-04, 4.51149512e-03,
          6.66672923e-03, 1.05120121e-02, 6.37463201e-03, 4.74415347e-03,
          5.66923199e-03, 3.03781766e-04, 1.30333158e-03,
          -1.09502413e-04, -1.40015036e-03, 9.11420153e-04,
          -1.24395941e-03, -9.72032663e-04, 9.24756867e-04,
          1.65398675e-03, 2.32476485e-03, 1.14755775e-03,
          -2.06141383e-03, -1.28643576e-03, -5.00310620e-04,
          1.30236696e-03, 1.33999402e-03, -1.19149638e-03,
          1.44551543e-03, 3.30824777e-03, 1.60426775e-03, 6.37004967e-04,
          1.03122892e-03, -6.72675378e-04, 3.32681253e-03,
          6.36132713e-03, 1.01651764e-03, -1.38126966e-03,
          -2.16262531e-03, 4.48460225e-04, 1.03637297e-03,
          8.24706105e-04, -3.31500173e-03, 3.40078748e-03,
          4.80851997e-03, 3.86662083e-03, 1.82869809e-03, 7.04510079e-04,
          1.52666657e-03, 3.00971000e-03, 2.70544109e-03, 2.33376049e-03,
          2.16001808e-03, -2.20208499e-03, 6.79728575e-04,
          -9.25414846e-04, 8.70408863e-03, 1.16959615e-02,
          8.11108667e-03, 4.48555034e-03, 6.60749758e-03, 6.77213026e-03,
          4.69544064e-03, 6.46695774e-03, 7.52071850e-03, 4.40120278e-03,
          4.21444466e-03, 7.51379505e-03, 5.70022827e-03, 1.60788582e-03,
          6.01165742e-03, 5.08559402e-03, 7.83223379e-03, 3.27131059e-03,
          5.33776870e-03, -4.95664099e-05, 6.34830270e-04,
          -6.97741227e-04, 2.00689072e-04, 2.32403097e-03,
          1.38766959e-03, 1.89924357e-03, 1.31890993e-03, 4.10986226e-03,
          5.15354099e-03, 3.49747227e-03, -2.33573560e-03,
          -2.30477913e-03, -7.47959130e-04, 3.53317620e-04,
          1.00114895e-03, 1.61051610e-03, 8.76604638e-04, 2.46064947e-03,
          6.19819155e-03, 1.39452703e-03, 5.85482689e-04, 3.45154363e-03,
          3.49916611e-03, 7.00819446e-03, 6.48673438e-03,
          -4.66332684e-04, -2.17637327e-03, 1.51301967e-03,
          4.59204568e-03, 2.05005542e-03, -9.29180766e-04,
          5.42128831e-03, 4.58130287e-03, 3.26397596e-03, 7.00856850e-04,
          -2.01074267e-03, 1.22256845e-03, 3.89003148e-03,
          3.76058626e-03, 3.43153113e-03, 7.28900312e-04,
          -5.34913829e-03, 3.95166193e-04, 3.96273572e-05,
          8.19161441e-03, 7.74163520e-03, 7.69692613e-03, 4.05412633e-03,
          4.88360599e-03, 5.37847681e-03, 3.79746524e-03, 2.76107015e-03,
          5.30494237e-03, 4.93912864e-03, 8.11019354e-03, 8.49117152e-03,
          8.63865111e-03, 4.97792941e-03, 7.18698418e-03, 7.29645649e-03,
          6.24721451e-03, 4.80677187e-03, 8.00136128e-04, 3.58333229e-03,
          -8.93268298e-05, -2.88205018e-04, 1.58510427e-03,
          2.52576731e-03, 2.30810302e-03, 5.11977181e-04, 1.97198894e-03,
          5.26117766e-03, 5.60958916e-03, 3.39199789e-04,
          -7.68179481e-04, -1.16512040e-03, 1.52681721e-04,
          2.29688492e-04, 1.76680542e-03, 1.32500834e-03, 1.69480126e-03,
          3.60039040e-03, 4.72562341e-03, 4.22671251e-03, 2.09737034e-03,
          4.83033305e-04, 3.97003256e-03, 6.81840722e-03, 3.55320820e-03,
          3.14540952e-03, 2.23687384e-03, 3.50508199e-04, 3.63902026e-03,
          1.66118541e-03, -1.05799723e-03, 3.62721412e-03,
          3.96733312e-03, 1.78151124e-03, 1.00997253e-03,
          -1.74034038e-03, 7.51677799e-05, 3.68228485e-03,
          3.21707432e-03, 2.72833579e-03, 4.70373379e-05,
          -5.70780691e-03, -1.86520221e-04, 2.91130506e-04,
          9.87479743e-03, 9.84626450e-03, 1.10746911e-02, 7.76993623e-03,
          6.34782529e-03, 6.55964809e-03, 6.57366915e-03, 2.38659745e-03,
          6.34432351e-03, 5.76158985e-03, 5.58067113e-03, 9.27306525e-03,
          8.17750115e-03, 3.29835340e-03, 7.25356536e-03, 5.46713360e-03,
          6.24044472e-03, 5.60285151e-03, 2.22857692e-03, 3.26949661e-03,
          -1.30431855e-03, 4.81215597e-04, 2.12128996e-03,
          2.24185828e-03, 2.29963823e-03, 1.51633867e-03, 1.20187434e-03,
          6.19598012e-03, 5.01262629e-03, 1.88661239e-03, 6.88606058e-04,
          1.16610515e-03, 1.37403444e-03, -1.07339882e-04,
          1.80817442e-03, 1.20622513e-03, 3.70783731e-03, 2.68747075e-03,
          3.20143928e-03, 2.00507441e-03, 1.07719959e-03, 1.28757244e-03,
          1.82632357e-03, 5.27727744e-03, 3.22377356e-03, 3.21175205e-03,
          2.96634529e-03, 3.48856440e-03, 6.88146893e-03, 4.08318359e-03,
          7.27390652e-05, 5.11719286e-03, 3.66683700e-03, 8.18006636e-04,
          1.21622102e-03, -4.50289604e-04, 2.19141715e-03,
          3.56875011e-03, 2.69226241e-03, 2.55556451e-03,
          -1.67044913e-04, -4.52709896e-03, -5.84143156e-04,
          1.86546589e-04, 9.81906336e-03, 1.03779742e-02, 9.92404763e-03,
          6.48676325e-03, 3.72137665e-03, 5.54808415e-03, 4.78637265e-03,
          4.68478445e-03, 6.58530602e-03, 5.44654019e-03, 2.37396150e-03,
          6.59996783e-03, 6.61443966e-03, 2.26523960e-03, 3.62444320e-03,
          2.11679237e-03, 4.88195149e-03, 2.34785490e-03,
          -8.00483336e-04, 4.65880643e-04, -2.23006913e-03,
          -6.75715273e-04, 1.05765939e-03, 2.05815406e-04,
          1.50940684e-03, 1.24151621e-03, 8.92272335e-04, 2.43445323e-03,
          2.75972486e-03, 5.32819424e-03, 6.11351477e-03, 2.06389464e-03,
          8.99092527e-04, 1.23876403e-03, 2.46239803e-03, 2.47211684e-03,
          3.21633089e-03, 1.81335048e-03, 3.69190634e-03, 2.86480272e-03,
          1.97494472e-03, 1.13725488e-03, 2.80494965e-03, 6.58260519e-03,
          5.16530639e-03, 1.90560054e-03, 6.80297031e-04, 3.19017773e-03,
          6.23303559e-03, 3.92966159e-03, 1.17280614e-03, 4.96525969e-03,
          2.85342499e-03, 2.76127923e-03, 1.35589903e-03, 7.82310904e-04,
          3.60839884e-03, 5.21677220e-03, 4.57601342e-03, 4.33084881e-03,
          2.54242844e-03, -3.14452103e-03, -1.00540265e-03,
          -8.03207513e-04, 9.66708921e-03, 1.10059436e-02,
          1.04489867e-02, 7.16051087e-03, 6.68143015e-03, 7.45580904e-03,
          6.82770601e-03, 5.21248486e-03, 5.28456597e-03, 5.65764401e-03,
          1.70009781e-03, 4.94471099e-03, 5.08424500e-03, 2.38495041e-03,
          2.20809854e-03, -1.80206331e-03, 5.95010875e-04,
          1.27778063e-03, -1.46871351e-03, 1.27998285e-03,
          1.27528980e-03, -3.78320874e-05, 4.63135744e-04,
          1.22901064e-03, 9.31618561e-04, 1.09647587e-03,
          -1.58919167e-04, -1.99878283e-04, 3.19430744e-03,
          3.98798194e-03, 4.24907636e-03, 1.24068349e-03, 2.82298715e-04,
          -1.80872018e-03, 8.41789122e-04, 1.83117983e-03,
          3.68490489e-03, 3.40931024e-03, 2.83328188e-03, 2.96004210e-03,
          1.56848168e-03, 1.56944047e-03, 2.38930807e-03, 4.42453381e-03,
          7.19970465e-03, 3.24674393e-03, -1.10093097e-03,
          4.25549038e-03, 4.58392873e-03, 1.29117852e-03,
          -4.49565268e-04, 5.27934870e-03, 3.36586055e-03,
          3.15087778e-03, 2.88942736e-03, 1.59080967e-03, 2.84441165e-03,
          3.36418650e-03, 3.84648587e-03, 3.46349529e-03, 3.23235895e-03,
          -8.18831788e-04, -4.20107361e-04, -4.74566361e-04,
          6.19302224e-03, 1.12840123e-02, 1.09870592e-02, 6.78147608e-03,
          6.51762821e-03, 8.97615310e-03, 7.55529525e-03, 3.76069895e-03,
          5.61858341e-03, 5.91135304e-03, 4.75036213e-03, 7.86852650e-03,
          7.42870383e-03, 1.20153162e-03, -5.04265423e-04,
          -1.59117044e-03, 2.99194129e-03, 1.56310422e-03,
          1.65983278e-03, 4.09203261e-04, 2.27957824e-03, 5.54516679e-04,
          4.63226519e-04, 9.80144716e-04, -1.12581044e-03,
          -1.19457487e-03, -2.52905628e-03, -2.00638431e-03,
          -4.63176693e-04, 2.94218305e-03, -1.76307186e-03,
          -1.20511721e-03, -8.97279126e-04, -2.14052270e-03,
          -1.63894298e-03, 2.49257102e-03, 2.07002740e-03,
          -4.16003109e-04, 1.79988297e-03, 3.80258611e-03,
          1.95217784e-03, 1.92961725e-03, 3.98043543e-03, 5.99610910e-04,
          2.45112507e-03, -3.31483828e-03, -1.28572178e-03,
          2.56323186e-03, 2.97119631e-03, -2.44872621e-03,
          -3.52536049e-03, -4.48768260e-04, 2.93225935e-03,
          1.91100989e-03, 1.91783428e-03, -4.77937341e-04,
          2.74903793e-03, 2.60083983e-03, 4.06326214e-03, 3.55131133e-03,
          3.98488808e-03, -6.53993629e-04, 7.91796017e-04,
          -5.27896977e-04, 8.34948104e-03, 1.05657559e-02,
          1.16535109e-02, 7.05203554e-03, 6.88726548e-03, 1.08290445e-02,
          8.14976171e-03, 7.26743322e-03, 1.12683689e-02, 6.05234178e-03,
          4.32032393e-03, 8.08536727e-03, 7.50260567e-03, 6.39907317e-04,
          -1.16712670e-03, -1.50148536e-03, 2.84808874e-03,
          -8.17087246e-04, 4.64480370e-03, 1.33597082e-03,
          4.59586561e-04, 1.14766916e-03, 1.41824118e-03, 1.98851712e-03,
          3.92670248e-04, -2.34450120e-03, -2.68704491e-03,
          -2.82572233e-03, -4.61184070e-04, 6.38270722e-05,
          -4.35588270e-04, 6.16062258e-04, 2.53431522e-03,
          2.10612212e-04, -7.17118499e-04, 1.84765295e-03,
          3.49064358e-05, -2.00012466e-03, -1.38089992e-03,
          3.51290847e-03, 3.72037501e-03, 5.38518932e-03, 4.97507723e-03,
          4.59662173e-03, 2.13107793e-03, -6.65505824e-04,
          -8.76749866e-04, 1.45370397e-03, 2.30556214e-03,
          -2.63375742e-03, -1.79023901e-03, -9.07747773e-04,
          3.81332333e-03, -9.10913106e-04, -2.80492386e-04,
          -1.35381368e-03, 2.62413803e-03, 3.10148555e-03,
          6.50449074e-04, 2.01944448e-03, 3.49355309e-04,
          -1.41351961e-03, 2.41955300e-03, -1.68323889e-03,
          8.96412041e-03, 6.27832953e-03, 1.00973127e-02, 7.73265166e-03,
          5.64391213e-03, 5.01415692e-03, 7.81664811e-03, 2.74648308e-03,
          1.89747475e-03, 5.00422064e-03, 4.42587398e-03, 8.39442853e-03,
          6.22477196e-03, 1.47110282e-03, -1.32585515e-03,
          -1.68395427e-03, 2.02151109e-03, 1.15597399e-03,
          1.29690580e-03, 2.07681791e-03, 6.76149386e-04, 2.05557304e-03,
          3.63715738e-03, 4.37825406e-03, 2.04014010e-03, 5.35681902e-04,
          -1.96704618e-03, -2.96995044e-03, -2.56655109e-03,
          -1.16703287e-03, 1.80128170e-03, 2.04466423e-03,
          8.83364351e-04, 1.62583264e-03, -7.91686820e-04,
          2.72264401e-03, 1.79772731e-03, 5.31333091e-04, 1.15164090e-03,
          1.79644255e-03, 6.14030892e-03, 5.94071019e-03, 4.69418801e-03,
          4.61487519e-03, 1.80519803e-03, 3.31129238e-04, 1.12788903e-03,
          2.09640083e-03, 1.22241955e-03, -1.27669156e-03,
          1.67519541e-03, 4.86366072e-04, 2.80724186e-03,
          -1.71215774e-03, 1.36686591e-04, -2.73887359e-04,
          2.81335763e-03, 1.59062457e-03, 2.53261952e-03, 2.54582195e-03,
          -1.15714408e-03, -6.67181890e-03, -1.26683433e-03,
          -1.79198000e-03, 8.94223433e-03, 1.02801658e-02,
          7.25019630e-03, 4.54766536e-03, 3.21754883e-03, 2.39183125e-03,
          5.19023789e-03, 2.98856269e-03, 7.87801633e-04, 1.57643028e-03,
          3.80811072e-03, 7.64776301e-03, 5.78354159e-03, 4.26557381e-03,
          -5.88917057e-04, -1.67574163e-03, 6.28114503e-04,
          -3.49277281e-04, 5.28437784e-03, 4.55114618e-03,
          2.79006688e-03, 1.26646471e-03, 3.74099077e-03, 3.38280597e-03,
          2.43896130e-03, 3.61032202e-04, -4.88839578e-04,
          -6.04646804e-04, -1.15515653e-03, -6.74213748e-04,
          -7.13249494e-04, -1.11785065e-03, 7.77785026e-04,
          2.65449123e-03, -6.40561222e-04, -7.57022994e-04,
          -2.57253041e-03, 1.54547190e-04, -1.30829483e-03,
          1.58967741e-03, 4.87723341e-03, 6.65461924e-03, 6.16628956e-03,
          4.72360197e-03, -1.17044186e-03, 6.56752207e-04,
          1.51558127e-03, 8.03042029e-04, -6.36901183e-04,
          -1.29302416e-05, 2.41038762e-03, 3.55098629e-03,
          5.08560450e-04, 8.58895946e-04, 4.18269599e-04, 1.06431125e-03,
          1.95336179e-03, -1.23619466e-05, 9.05382039e-04,
          1.92268271e-04, -2.15641363e-03, -6.04260201e-03,
          -3.65155516e-04, -1.18378922e-03, 9.21679009e-03,
          9.65229515e-03, 6.86555309e-03, 4.55700886e-03, 4.36636200e-03,
          1.40178995e-03, 1.70558327e-04, 5.01912925e-03, 4.77343285e-03,
          1.23103056e-03, 7.19619123e-03, 6.00529602e-03, 6.26608869e-03,
          2.88537890e-03, 2.07375595e-03, -8.76569713e-04,
          2.38103559e-03, 3.15839564e-03, 1.06859661e-03,
          -4.54547844e-04, 2.00577476e-03, 1.60625146e-03,
          3.99067346e-03, 5.14095556e-03, 3.92289786e-03, 8.56640458e-04,
          1.06237736e-03, -1.07716862e-03, -2.00218667e-04,
          2.03975796e-04, 9.10869741e-04, 7.41941272e-04, 1.28128822e-03,
          3.19909723e-03, -3.06251412e-03, -2.39205454e-03,
          -4.00729291e-03, -1.16380746e-03, -1.24693546e-03,
          -1.70343759e-04, 4.70390217e-03, 6.94749271e-03,
          7.63360364e-03, 4.88449400e-03, -1.13766617e-03,
          -2.00476905e-04, -1.10871100e-03, -7.85545795e-04,
          -9.29802074e-04, -1.26854854e-03, -8.16987358e-06,
          2.63531203e-03, -2.51439924e-04, 1.64664947e-04,
          -2.29930185e-04, -1.46261801e-03, -4.85926692e-04,
          1.64096695e-04, -8.04629468e-04, -3.24746623e-04,
          -9.44452884e-04, -3.86272511e-03, -1.08330545e-03,
          8.74438323e-04, 7.87043944e-03, 9.58806649e-03, 3.07634263e-03,
          3.97455879e-03, 3.57132358e-03, 1.31600257e-03, 1.04744209e-03,
          1.17446820e-04, 1.48070254e-03, -7.76987144e-05,
          5.27357776e-03, 6.02358626e-03, 4.71719401e-03, 1.70791475e-03,
          -2.40250817e-03, 1.86812773e-03, -1.02634804e-04,
          1.27641822e-03, 2.35991669e-03, 7.80731963e-04, 9.64304083e-04,
          9.30573442e-04, 3.71278985e-03, -6.66504202e-04,
          1.41989673e-03, 5.74053265e-04, 1.39739492e-03,
          -8.84241250e-04, -2.08846759e-03, 1.14760536e-03,
          1.07369781e-03, 7.32213724e-04, 3.86393163e-03, 3.98192508e-03,
          -1.99684827e-03, -1.43030263e-03, -3.83146061e-03,
          -4.86048684e-03, 1.35137571e-03, -6.73723582e-04,
          3.02935066e-03, 6.35750685e-03, 5.92828495e-03, 5.51995123e-03,
          -1.96134439e-03, -1.20874669e-03, -2.20501469e-03,
          -1.48971507e-03, -2.07288889e-03, -1.83848245e-03,
          -3.26333009e-03, -1.66979298e-04, 1.39226334e-03,
          -1.47881440e-03, -2.09807698e-03, -9.44789848e-04,
          2.99768220e-03, 1.98036665e-03, -1.89978891e-04,
          -4.07841289e-04, -1.32753816e-03, -1.92993146e-03,
          7.19721604e-04, 5.67590585e-04, 3.49864131e-03, 5.42290183e-03,
          2.36879499e-03, 7.03098485e-03, 4.34604893e-03, 2.83307233e-03,
          3.48568591e-03, 2.23110896e-03, 1.50623790e-03, 5.14336862e-04,
          5.27519872e-03, 6.47556596e-03, 3.22500477e-03, 4.78610722e-03,
          -1.19152886e-03, 6.27275032e-04, 5.14685744e-05,
          1.79058043e-04, -1.49472777e-04, 4.20594402e-03,
          4.76648129e-05, -4.18984098e-04, -6.07157068e-04,
          -5.31972479e-03, -2.00101640e-03, 1.78993889e-03,
          2.92235264e-03, 2.83860747e-04, -7.36465663e-05,
          3.01254285e-03, 1.27610017e-03, 1.43878825e-03, 5.48254000e-03,
          4.65940963e-03, 9.93390218e-04, -4.28361032e-04,
          -4.94887121e-03, -3.39398859e-03, -3.77199752e-03,
          -2.02669576e-03, 1.17736147e-03, 7.42749404e-03,
          7.64288800e-03, -3.05646186e-04, -5.90483309e-04,
          8.48516083e-06, -2.46577617e-03, -1.73466513e-03,
          -1.88973069e-03, -2.26363493e-03, -3.27195227e-03,
          1.33874430e-03, -2.92581040e-04, -2.11164937e-03,
          -2.36929231e-03, 1.65854290e-03, 2.36921059e-03,
          4.30107070e-03, 2.48461240e-03, 1.88410249e-05,
          -9.73971270e-04, -2.64954870e-03, -2.75308877e-04,
          -5.97982085e-04, 3.39926337e-03, 6.66424073e-03,
          2.81876116e-03, 6.81268750e-03, 3.12764570e-03, 1.17151125e-03,
          2.51556723e-03, 5.26145846e-03, 1.98954833e-03, 5.35733532e-03,
          7.34961312e-03, 7.69555243e-03, 2.63265218e-03, 4.83000930e-03,
          1.60036818e-03, 3.68950586e-03, -2.63583570e-05,
          -2.86915386e-03, -1.66325422e-03, 8.33885046e-04,
          -2.01617891e-04, 1.21955830e-03, 6.40435901e-04,
          -7.50469510e-04, -2.34696968e-03, -1.05024606e-03,
          3.69766867e-03, 1.06515887e-03, 2.98230490e-03, 4.45149373e-03,
          2.30406784e-03, 1.22212165e-03, 5.56084840e-03, 7.03868642e-03,
          2.75013200e-03, 1.96527666e-03, -1.11371372e-03,
          -4.55468567e-03, -4.18776646e-03, -1.81680312e-03,
          3.98500910e-04, 1.64836622e-03, 6.66699372e-03,
          -1.20669720e-03, 4.71765990e-04, 4.58104740e-04,
          -8.64966714e-04, -8.72555771e-04, -2.36088224e-03,
          -2.79637263e-03, -3.70845455e-03, -1.29407283e-03,
          -2.27723358e-04, -9.60281002e-04, -1.15620007e-03,
          1.07076811e-03, 2.72905570e-03, 4.97421063e-03, 3.03332368e-03,
          -2.54813058e-04, -1.42681203e-03, -4.07279748e-03,
          -1.71102653e-03, -4.14043898e-03, 1.96544430e-03,
          4.47902502e-03, 4.34773695e-03, 6.39154343e-03, 2.87437974e-03,
          1.03842300e-04, 1.49364711e-03, 3.10115912e-03, 4.88814805e-03,
          5.85533865e-03, 5.34448633e-03, 6.95827650e-03, 4.48064320e-03,
          -1.55830476e-03, 1.49589428e-03, -1.85631635e-03,
          7.00310455e-04, -2.54382147e-03, 3.27310583e-04,
          -9.96998744e-04, 2.60282378e-03, 2.82842852e-03,
          -5.47270429e-06, 1.68818608e-03, -2.75954045e-03,
          -2.45342264e-03, -2.08526757e-03, 7.16887705e-04,
          4.71213274e-03, 4.11101524e-03, 5.67714311e-03, 4.13998729e-03,
          1.24193705e-03, 2.88934284e-03, 3.28555680e-03, 4.18301392e-03,
          4.81619779e-03, 4.27257852e-04, -1.71484752e-03,
          -9.33184812e-04, 4.05818364e-03, 2.65487423e-03,
          2.22291006e-03, 9.96105140e-04, 1.93151925e-03, 1.01028022e-03,
          3.69242905e-03, 4.17633541e-03, 5.12130267e-04,
          -4.10678005e-03, -1.49146572e-03, -3.98749532e-03,
          3.17294756e-03, 2.05487339e-03, 8.95542442e-04, 3.15005484e-04,
          1.49391312e-03, 3.62032349e-03, 2.11306009e-03,
          -5.71976125e-04, -1.23018457e-03, -4.06636717e-03,
          -4.99030482e-03, -4.01754398e-03, 9.76269541e-04,
          3.47730936e-03, 3.61253996e-03, 5.16002672e-03, 2.55800015e-03,
          -3.20713501e-04, 1.66133908e-03, 3.40142357e-03,
          5.71012823e-03, 3.43669415e-03, 4.29386739e-03, 9.35756695e-03,
          7.45477295e-03, 3.24411830e-03, 3.74472258e-03,
          -1.30265765e-03, -1.70313963e-03, 8.89801653e-04,
          1.45511096e-03, 7.80761067e-04, 1.52892456e-03, 5.20296860e-03,
          6.59614278e-04, 1.45148567e-03, 1.92310591e-03, 4.80118237e-04,
          -3.59285885e-04, 3.15935351e-04, 3.00290203e-03,
          2.42037023e-03, 4.50129760e-03, 5.38807549e-03, 1.56115636e-03,
          3.51308216e-03, 4.24317596e-03, 5.14314510e-03, 4.47046151e-03,
          4.37840959e-03, -4.14784445e-04, 1.59814034e-03,
          6.81178924e-03, 3.76415648e-03, 9.41279228e-04, 1.59558828e-03,
          6.20112522e-04, 3.61916656e-03, 6.14556437e-03, 4.93059284e-04,
          -3.69703892e-04, -4.31231922e-03, 1.42856583e-03,
          -2.41107424e-03, 3.38902324e-03, 2.93795462e-03,
          2.19301553e-03, -3.92335176e-04, 1.71496742e-03,
          2.92443321e-03, 1.55607832e-03, -2.02889880e-03,
          -3.98411741e-03, -4.65335092e-03, -6.10448420e-03,
          -3.93036241e-03, 3.42402770e-03, 1.72619638e-03,
          7.35837268e-04, 4.02315240e-03, 3.52583569e-03, 4.93904401e-04,
          1.76353869e-03, 2.25031748e-03, 5.63455140e-03, 7.02348631e-03,
          3.52857332e-03, 8.02699197e-03, 3.42454109e-03, 7.42936973e-04,
          4.43225540e-03, 2.78131664e-03, -8.99444858e-04,
          6.51652168e-04, 1.01432018e-03, 8.57130217e-04,
          -6.09586888e-04, 4.37497720e-03, 2.45462079e-03,
          4.94153285e-03, 5.02829766e-03, 1.83597754e-03,
          -2.07753829e-03, -2.96675088e-03, 1.93282380e-03,
          3.43702827e-03, 1.19926396e-03, 7.86814746e-03, 5.50718559e-03,
          3.50097753e-03, 2.20482913e-03, 2.55802018e-03, 4.52263746e-03,
          7.08939647e-03, 3.68908420e-03, 5.34322299e-03, 8.57143663e-03,
          5.79898339e-03, 4.46107378e-03, 5.11246501e-03, 2.82468670e-03,
          3.21256788e-03, 3.24269757e-03, 1.71843742e-03, 7.17341900e-04,
          -5.78775397e-03, 2.92633125e-03, 1.72195341e-05,
          2.95959739e-03, 4.06473642e-03, 5.47125703e-04, 1.63368857e-03,
          3.24349129e-03, 3.83620383e-03, 5.95123274e-04,
          -2.85133789e-03, -3.48060229e-03, -2.55742087e-03,
          -4.69091628e-03, -2.95388931e-03, 3.51117202e-03,
          1.18618319e-03, 3.20149673e-04, 5.83277876e-03, 3.66345886e-03,
          2.19016057e-03, 1.76871882e-03, -6.07617003e-05,
          2.35385331e-03, 5.32324472e-03, 2.36016372e-03, 7.33901002e-03,
          2.94478610e-03, 2.98671250e-04, 4.25577164e-03,
          -6.79599761e-04, 4.76117106e-03, 2.01252010e-03,
          4.71129455e-03, 3.82499071e-04, 2.32678209e-03, 3.06981429e-03,
          -6.21346699e-04, 5.28493256e-04, 9.85171762e-04,
          8.98362603e-04, -1.71988504e-03, -2.70652631e-03,
          7.25070189e-04, 1.87470915e-03, 5.93297184e-04, 4.42119408e-03,
          5.54191414e-03, 6.76387222e-03, 3.22032883e-03, 3.70759424e-03,
          3.94613901e-03, 7.34996470e-03, 6.09923527e-03, 7.74894608e-03,
          7.52205774e-03, 6.15746435e-03, 5.76457242e-03, 5.81846246e-03,
          1.97373913e-03, 7.03555648e-04, -2.29738071e-04,
          2.34085228e-03, 2.50783213e-03, -2.59064091e-03,
          1.31313130e-03, 2.45515793e-03, -3.80517857e-04,
          -3.15954746e-03, 1.97940832e-03, 1.68056006e-03,
          1.88839831e-03, 3.33725312e-03, 3.43186059e-03,
          -2.25800090e-03, 8.98479484e-04, -1.22957304e-03,
          -2.31602252e-03, -5.11840277e-04, 4.71838797e-03,
          2.94086779e-03, 7.59106828e-04, 1.17219135e-03, 2.27526692e-03,
          1.22452329e-03, 4.03511198e-03, -2.68793781e-03,
          -3.80349113e-04, -4.09321859e-03, -1.19953975e-03,
          7.64247170e-03, 3.14294314e-03, 1.11919166e-04, 2.89016822e-03,
          2.51606177e-03, -4.09708853e-04, 4.67538554e-03,
          1.63892357e-04, 1.16281107e-03, -6.31272269e-04,
          -1.38506046e-04, 1.39183743e-04, -4.76905238e-03,
          -4.32678312e-03, -3.45414854e-03, -2.91133323e-03,
          -1.54373713e-03, -1.76069589e-04, -3.03066778e-03,
          -1.35358272e-03, -8.34591046e-04, 1.32306525e-03,
          2.94380076e-03, 1.68866466e-03, -3.48823000e-04,
          -8.03527364e-05, 4.29656450e-03, 6.06854539e-03,
          6.58271043e-03, 7.95393623e-03, 7.36044021e-03, 2.38871155e-03,
          4.73215198e-03, 2.55504600e-03, 2.85765901e-03, 5.22141112e-04,
          9.26467183e-04, 1.83103664e-03, 7.31570064e-04, 1.14679208e-03,
          2.21190369e-03, 1.32600206e-03, -2.31549121e-03,
          -2.83108038e-05, 2.64094351e-03, 2.17387546e-03,
          1.37196004e-03, -7.62157841e-04, -2.81896093e-04,
          3.11928545e-03, -2.29262095e-03, -9.80287674e-04,
          -1.62373704e-03, 6.98996708e-03, 2.98008323e-03,
          1.26737787e-03, 1.53400633e-03, 8.34161881e-04, 2.34855834e-04,
          -1.48033327e-03, -1.02032325e-03, -6.21901359e-04,
          -1.77816662e-03, -7.64134061e-03, 2.83678132e-03,
          3.34585737e-03, -2.36556819e-03, 7.08862150e-04,
          -5.28685516e-03, 1.39887154e-03, -1.47857354e-03,
          -6.50107744e-04, -2.10160180e-03, -2.16542208e-03,
          -5.34704747e-03, -4.32183806e-05, -1.98698556e-03,
          -3.77914193e-03, -2.76416354e-03, -5.57583582e-04,
          -9.26999201e-04, -1.74572971e-03, -4.17409604e-03,
          -5.00209164e-03, -2.23640609e-03, 8.48393363e-04,
          9.43613763e-04, 1.05589954e-03, 2.85217678e-03, 1.72611675e-03,
          6.28980168e-04, 1.51440827e-03, 7.80610880e-03, 6.34371676e-03,
          4.51202039e-03, 5.13417786e-03, 3.38853686e-03, 2.31702114e-03,
          2.03912161e-04, -2.50711484e-04, -1.31085995e-04,
          2.10712012e-03, -9.56316304e-04, -1.37181184e-03,
          4.24005499e-04, 2.10994878e-03, -3.09856958e-03,
          -1.03254570e-03, 4.78698267e-03, 2.33679009e-03,
          3.31288931e-04, 3.97630938e-04, 1.34842703e-04, 5.68278738e-05,
          -2.35542189e-03, 2.55372771e-03, 1.26149494e-03,
          1.87618041e-03, 3.19785019e-03, 1.00751407e-03, 2.90897535e-03,
          -1.36496034e-03, 2.59670708e-03, -9.56912583e-04,
          1.59431121e-03, -2.28410494e-03, -5.21793729e-04,
          -7.29129277e-03, -2.76963506e-03, -2.18347064e-03,
          -5.18995989e-03, -2.56540603e-03, -5.09803463e-03,
          -4.49692132e-04, -2.00929609e-03, 1.92477694e-03,
          2.65224691e-04, -5.04547497e-04, -4.80055436e-03,
          1.56538363e-03, 3.13841645e-03, 3.05040070e-04,
          -3.61463591e-03, -4.81982919e-04, 2.91087694e-04,
          -1.49957289e-03, -2.35131546e-03, -3.76510085e-03,
          -4.46989993e-03, -4.11050190e-04, -1.57291209e-03,
          2.35177879e-03, 3.25898197e-03, 3.32395430e-03, 1.03649870e-03,
          1.71320827e-03, 6.19942369e-03, 8.16926546e-03, 6.89910864e-03,
          6.16745651e-03, 1.40164257e-03, 2.09760992e-03, 3.33301467e-03,
          4.43826104e-03, -2.01023556e-03, 5.92645956e-04,
          -2.15868326e-03, -3.92691419e-03, -1.82811287e-03,
          -1.68164389e-03, -4.11764579e-03, -1.25082477e-03,
          1.41062634e-03, 2.02250760e-03, 4.29589010e-04,
          -1.77158407e-04, -9.62781836e-04, -2.53061124e-04,
          6.49595109e-04, 2.39236141e-03, 1.69814401e-03, 1.18482625e-03,
          2.34135194e-03, 4.62763244e-04, 1.72671163e-03,
          -1.44803466e-03, 4.50488599e-03, 1.97500084e-03,
          1.05734065e-03, -8.84711277e-04, -1.47888460e-03,
          -6.80874009e-03, -5.10659674e-03, -4.16191015e-03,
          -5.28044766e-03, -4.46782913e-03, -6.28167437e-03,
          -1.83927722e-03, -1.58418168e-03, -2.32123514e-03,
          -4.10087453e-03, -4.95234737e-04, -1.54605124e-03,
          7.55656627e-04, -3.19090090e-04, -2.64550815e-03,
          -3.25180730e-03, -1.00170437e-03, -4.88091633e-03,
          -1.34242489e-03, -1.31803926e-03, -2.09367392e-03,
          5.99305495e-05, -1.12021540e-03, -1.15106662e-03,
          -3.47366254e-03, -1.49693934e-03, -9.07853610e-05,
          1.94804533e-03, 2.81440909e-03, 6.44106185e-03, 4.14284319e-03,
          5.14178863e-03, 2.75427359e-03, 3.49938334e-03, 5.02889697e-03,
          2.05476186e-03, 2.65376433e-03, -7.86934572e-04,
          1.89468733e-06, -3.98359122e-03, -3.95922316e-03,
          -2.40008776e-05, 1.82446849e-04, -1.31894124e-03,
          -2.61598523e-03, -9.19127895e-04, 2.55531678e-03,
          2.73269811e-03, -6.24826062e-04, -1.33610144e-03,
          -8.43115267e-04, 5.52694022e-04, 1.24490389e-03,
          1.97387097e-04, 1.46976541e-04, -3.01091699e-04,
          1.47765235e-03, 1.12304545e-03, -1.48402655e-03,
          3.86521686e-03, 8.78731778e-04, -1.45496370e-03,
          -1.53768226e-03, -1.15225697e-03, -7.25942012e-03,
          -2.96506891e-03, -9.61942319e-03, -7.67063303e-03,
          -5.59014408e-03, -5.15900366e-03, -2.76463269e-03,
          -4.16922336e-03, -7.37354159e-04, -2.01485399e-03,
          2.29629455e-04, -1.24569528e-03, 3.86752142e-03,
          2.56813224e-03, -4.04919218e-03, 5.26597250e-05,
          -3.62065155e-03, -6.42846338e-03, -3.22662410e-03,
          -2.89739436e-03, -4.22000512e-03, -1.09981513e-03,
          3.86556494e-04, -1.32313685e-03, -2.11975048e-03,
          -8.31225407e-05, 2.34966655e-03, 2.38839234e-03,
          3.88197065e-03, 6.39316160e-03, 1.81633024e-03, 3.73757025e-03,
          9.98997595e-04, 4.27400926e-03, 3.57475685e-04, 1.97626837e-03,
          2.29185517e-03, 6.62650273e-04, -1.19289046e-03,
          -3.75795341e-03, -2.32915790e-03, 3.62843368e-03,
          7.81158509e-04, -1.32555736e-03, -2.59868125e-03,
          8.45743751e-04, 1.89743075e-03, 4.95670643e-03, 1.21086443e-04,
          -8.84721230e-04, -1.95985165e-04, -4.11359681e-04,
          1.28475041e-03, -6.21607760e-04, -9.20219522e-04,
          2.30775084e-04, 3.37538542e-04, 8.13726161e-04, 4.28948551e-04,
          -3.30670155e-04, -3.73542207e-05, -9.73113463e-04,
          1.55769158e-04, -3.59956152e-03, -6.25945628e-03,
          -1.73392915e-03, -6.43786648e-03, -7.99770001e-03,
          -5.20041492e-03, -5.65031217e-03, -4.26736288e-03,
          -1.49535981e-03, -2.86657852e-03, 1.77348335e-03,
          -3.00081493e-03, -3.84662603e-03, -3.63639859e-03,
          6.24940149e-05, -3.01492913e-03, -3.22163198e-03,
          -3.34668113e-03, -1.24731171e-03, -1.85647490e-03,
          2.09291247e-04, -1.55120983e-03, -4.14747337e-04,
          -9.38090321e-04, 5.76319522e-04, -3.60315409e-03,
          -2.16166582e-03, -2.42565363e-03, 1.46498834e-03,
          3.34641919e-03, 8.07262678e-03, 3.68438265e-03, 6.61077863e-03,
          -1.20446179e-03, -8.49811942e-04, -1.59651332e-03,
          -2.23151670e-04, 9.25674336e-04, 3.55735212e-03,
          1.69639138e-03, -1.48321013e-03, 2.32701167e-03,
          4.18436900e-03, 9.59265279e-04, -7.03967235e-04,
          1.97078264e-03, 2.91399308e-03, 4.24764911e-03, 6.15884317e-03,
          8.83794099e-04, -1.51774191e-04, 7.03401747e-04,
          -5.54953935e-04, 1.80224550e-03, 5.65803566e-05,
          1.31676497e-04, -1.08231360e-03, -1.26003567e-03,
          -1.57287216e-03, -1.85032410e-03, -1.44031120e-03,
          5.16375352e-04, -2.07903702e-03, -2.27843691e-03,
          -4.91432147e-03, -2.76901457e-03, 2.34239944e-03,
          -2.74560251e-03, -1.54150079e-03, -3.00738821e-03,
          -5.38847409e-03, 3.79811041e-04, 1.81922136e-04,
          -1.14628789e-03, 2.60146428e-03, -1.93566229e-04,
          3.50416568e-03, 1.65390049e-03, 1.62872171e-03, 7.22322220e-05,
          -6.58569625e-04, -5.04729850e-03, -3.30660463e-04,
          1.83837244e-03, 1.25649298e-04, -2.05779704e-03,
          4.40949062e-03, 4.10007173e-03, 5.50646428e-03, 3.22709815e-03,
          3.80656426e-03, 4.96543106e-03, 8.29461869e-03, 7.16334907e-03,
          8.05608742e-03, 6.97063468e-03, 5.49803348e-03, 1.75251393e-03,
          5.18591078e-05, 3.67407280e-04, 8.70284683e-04, 2.61723017e-03,
          5.08983014e-03, 2.32604123e-03, -4.43840865e-04,
          3.19938466e-04, 3.42261279e-03, -1.05525414e-03,
          1.35859824e-03, 1.49390334e-03, 2.65734596e-03, 4.85818321e-03,
          6.08393829e-03, 5.77294733e-03, 1.23555795e-03, 6.05627429e-04,
          -9.28515568e-04, 4.26060753e-04, 1.40281452e-03,
          7.60868774e-04, -5.68730640e-04, 2.43181654e-04,
          -1.06554606e-03, -2.64101778e-04, -1.27720414e-03,
          8.55586433e-04, -3.33095901e-03, -3.29248467e-03,
          -5.32541983e-03, 1.42357871e-03, 1.77554053e-03,
          2.69789132e-03, -3.19478917e-03, -8.43363290e-04,
          -1.96962315e-03, 2.38080812e-03, 6.14045770e-04,
          -2.74818786e-03, -2.97634001e-03, 5.74052753e-03,
          3.53298686e-03, -2.15771794e-03, -2.96765647e-04,
          3.61655257e-04, -9.06275818e-04, -3.95255908e-03,
          -2.79324432e-03, 1.41182577e-03, -3.85798304e-03,
          6.44527099e-05, 3.74999654e-04, 6.05757860e-03, 5.76235820e-03,
          6.70987787e-03, 4.88901790e-03, 5.66083100e-03, 8.07421654e-03,
          1.30601684e-02, 1.37513923e-02, 8.64132494e-03, 7.58821750e-03,
          3.72293289e-03, 1.97425485e-03, 2.57676397e-03,
          -8.36770705e-05, 2.51393241e-04, 4.78806114e-03,
          2.79048854e-03, 2.93604971e-04, 2.11612484e-03, 2.34540273e-03,
          -2.36491673e-03, -2.12032557e-03, 5.41124173e-05,
          4.10259655e-03, 1.92471815e-03, 2.43435451e-03, 8.94087716e-04,
          1.41521610e-04, 7.44649966e-04, 5.02621231e-04, 3.01271240e-04,
          1.50499085e-03, 2.17383160e-04, -1.25809922e-03,
          -1.74510386e-03, 3.20207037e-04, -8.97333026e-04,
          -6.30302762e-04, 1.61445860e-04, 9.79827251e-04,
          1.34556671e-03, -5.39829722e-03, -1.06785283e-03,
          -2.97736446e-03, 1.84911152e-03, -3.64504289e-03,
          -1.10503018e-03, -1.06222788e-03, 1.03650254e-03,
          3.10196163e-04, -2.36961897e-03, -2.41769827e-03,
          -1.29187014e-03, 1.28345960e-03, 2.19585001e-03,
          1.59464288e-03, 1.78054185e-03, -2.26809483e-04,
          -2.72182841e-03, -1.71306403e-03, 2.44513014e-03,
          9.83879203e-04, -4.45978134e-04, 5.91351301e-04,
          3.05768056e-03, 6.00559078e-03, 6.94659958e-03, 3.52325593e-03,
          4.29622782e-03, 7.47005502e-03, 8.78220424e-03, 1.15489615e-02,
          6.25098683e-03, 5.85911423e-03, 3.35386163e-03, 1.61300472e-03,
          2.33300932e-04, -3.25394474e-04, -9.45624546e-04,
          1.67245732e-03, -4.66789556e-04, 1.39701017e-03,
          1.96770392e-03, 3.04323621e-03, 1.81850314e-03,
          -8.66818707e-04, -6.48998364e-04, 1.40416366e-03,
          2.01729476e-03, -2.49084787e-05, 3.75834279e-05,
          -2.10917904e-04, -8.58863001e-04, -2.03116494e-03,
          2.62488029e-03, 2.86449213e-03, -2.00647977e-03,
          -2.06190581e-03, 3.12625605e-04, 5.74252299e-05,
          3.76461423e-03, 5.28479693e-03, 3.48982261e-03, 2.28059432e-03,
          -5.26215928e-03, -1.99283496e-03, -4.47402801e-03,
          -4.78568440e-03, -1.56416227e-05, -2.26186030e-03,
          1.32642523e-03, -8.53715581e-04, -2.76509090e-05,
          -1.21053739e-03, -1.80833635e-03, -7.31117965e-04,
          -3.21877911e-03, 1.67985982e-03, 3.57842096e-03,
          3.78405536e-03, 1.14387355e-03, -8.48608848e-04,
          -2.44135590e-04, 1.46223765e-05, 1.96517305e-03,
          4.83641354e-03, 1.50596036e-03, -7.39290554e-04,
          -7.36572183e-05, 1.53872487e-03, 1.37125584e-03,
          -4.01522149e-04, 1.93399750e-03, 6.69625029e-03,
          6.85173227e-03, 9.42377374e-03, 6.74370397e-03, 5.61571261e-03,
          1.56874640e-03, -2.31333496e-03, -2.20556540e-04,
          -1.91571482e-03, -1.33808691e-03, 1.15633127e-03,
          -1.22603262e-03, 1.73426128e-03, 5.33297134e-04,
          -3.50752758e-04, -2.74009234e-03, 2.10250984e-03,
          -3.24372697e-04, -1.47735013e-03, 3.77204095e-04,
          -1.02701690e-03, -2.51165079e-03, -2.76459497e-03,
          -5.89403277e-03, -3.77080031e-03, -4.36879229e-03,
          -1.41630694e-03, -2.75252573e-03, -3.36799514e-03,
          -3.92810348e-03, -2.95849796e-03, 4.87383036e-03,
          1.70113693e-03, 1.26416644e-03, 2.38748826e-03, 1.06174906e-03,
          3.50382132e-03, -5.14454488e-03, -1.01379701e-04,
          -5.35740517e-04, 2.33610603e-03, 5.10705588e-03,
          4.77695651e-03, 2.26487755e-03, -2.18485459e-03,
          -2.36204313e-03, 2.26293085e-03, -3.85787711e-03,
          3.32374708e-03, 4.20379965e-03, 2.19397480e-03,
          -6.84389728e-04, 2.03492749e-03, 5.95913094e-04,
          -1.40531571e-03, -1.84542019e-04, -5.66860777e-04,
          1.47161470e-03, 4.51167300e-03, 4.37061535e-03, 1.82022713e-03,
          8.17700103e-03, 5.70737990e-03, 7.80347874e-03, 5.27874427e-03,
          6.70378795e-03, 5.47948247e-03, 4.01140843e-03, 3.74827883e-03,
          1.45710877e-03, 6.64528634e-05, 1.73215847e-03, 1.77550840e-03,
          -1.89684186e-04, -3.17091425e-03, -2.66415812e-03,
          -1.74305541e-03, -4.13039606e-03, -5.22419810e-03,
          -1.90956623e-03, -5.32672508e-04, -1.88005052e-03,
          -3.62690003e-03, 5.08089433e-04, -1.13185367e-03,
          -2.61755148e-03, -4.28785803e-03, -4.38362267e-03,
          -6.28938014e-03, -6.18359959e-03, -1.61980698e-03,
          -2.35598069e-03, -1.75207807e-03, -2.45304289e-03,
          3.98310693e-03, 7.10258726e-03, 4.02183738e-03, 7.35907117e-03,
          3.58021678e-03, 4.46516555e-03, 3.25146457e-03,
          -6.57422142e-03, 2.72123329e-03, -2.16833106e-03,
          2.23291316e-03, 4.45451960e-03, 5.17113460e-03, 1.57330174e-03,
          2.09788070e-03, -8.43162474e-04, 1.63149787e-03,
          -3.71113932e-03, -2.43358780e-03, -4.30426747e-03,
          1.79537863e-03, -3.44443228e-03, 8.13388673e-04,
          5.99489606e-04, -3.51276877e-03, -6.73992792e-03,
          -9.47792549e-04, 3.70440027e-03, 2.13045254e-03,
          5.63519634e-03, 6.86715031e-03, 6.33560168e-03, 3.34819406e-03,
          7.90500082e-04, 5.86336153e-03, 3.76961287e-03, 2.98395543e-03,
          2.75263586e-03, 8.69284908e-04, -1.68915140e-03,
          1.81930850e-03, 1.40582386e-04, -8.91570991e-04,
          -2.80188071e-03, -3.94290313e-03, -2.67220614e-03,
          -2.84044351e-03, -3.14013590e-03, -3.22375796e-03,
          -1.84598833e-03, -2.15510186e-03, 1.48671388e-03,
          1.31128880e-03, -2.25418044e-04, -2.45710369e-03,
          -4.46113758e-03, -3.93288210e-03, -3.73564474e-03,
          -1.31706125e-03, -4.11764078e-04, 8.52158992e-04,
          3.72257410e-03, 4.78001824e-03, -1.13896924e-04,
          3.02809221e-03, 6.23891037e-03, 3.43810674e-03, 4.25642077e-03,
          2.75118765e-03, 5.65589033e-03, 1.52581721e-03,
          -4.36167838e-03, -3.72686889e-03, -2.90579093e-03,
          3.46574676e-03, 3.28929280e-03, 3.60874576e-03, 2.08731112e-03,
          -1.28471816e-03, -2.57533044e-03, -1.86438370e-03,
          -1.61616167e-03, -2.94975052e-03, -4.93168784e-03,
          -3.74401757e-03, -2.01916462e-03, -5.59320149e-04,
          -4.00262710e-04, -3.25350463e-03, -6.37564808e-03,
          -7.67953985e-04, 4.85210167e-03, 3.76260187e-03,
          4.94704582e-03, 4.93997289e-03, 5.88879315e-03, 7.89641123e-03,
          4.57003061e-03, 5.09391818e-03, 7.82791432e-03, 4.78788605e-03,
          -3.52883275e-04, 2.97603616e-03, 2.15644715e-03,
          3.91428731e-03, 5.46046719e-03, 1.23268692e-03,
          -2.79019168e-03, -5.47595136e-03, -5.43128606e-03,
          -4.47924528e-03, -6.25867583e-03, -4.17983765e-03,
          -8.90123134e-04, -1.22482679e-03, 1.03291485e-03,
          -1.68673554e-03, -5.10786101e-03, -5.52579667e-03,
          -8.37273896e-03, -3.80590651e-03, -4.47127875e-03,
          -2.34004087e-03, -1.74307043e-03, 1.41366661e-04,
          3.62060312e-03, 4.03327681e-03, -2.96563702e-03,
          2.95419688e-03, 6.13173610e-03, 2.60871206e-03, 5.33007830e-03,
          -7.18408919e-05, 2.42679613e-03, 5.69735566e-05,
          -1.54999888e-03, -3.31781572e-03, -1.97428584e-04,
          5.43090189e-03, 4.43145307e-03, 2.08809134e-03,
          -2.71622790e-04, -1.60525355e-03, -1.81649101e-03,
          -5.22151415e-04, -2.84473761e-03, 6.91123365e-04,
          -4.14519943e-03, -4.60093142e-03, -1.93460472e-03,
          -2.86997703e-04, 9.78383701e-04, -2.89388769e-03,
          -4.64577787e-03, 7.21727789e-04, 2.06635753e-03,
          3.16272955e-03, 4.88269003e-03, 7.36640766e-03, 7.50871142e-03,
          4.95136296e-03, 5.18994965e-03, 7.78876664e-03, 2.95237359e-03,
          5.73197333e-03, 4.32035048e-03, 6.60131080e-03, 3.43891932e-03,
          2.46156589e-03, 4.86497534e-03, 4.34522983e-03, 2.73795589e-03,
          -3.44973989e-03, -4.56021819e-03, -6.22744532e-03,
          -2.48351763e-03, -3.25613609e-03, 4.73162654e-04,
          9.80128068e-04, 1.82318661e-04, -1.52332115e-03,
          -5.52865863e-03, -6.87398901e-03, -5.35002630e-03,
          -5.61398268e-03, -7.78786791e-03, -6.77428441e-03,
          -4.33253963e-03, 9.37401142e-04, 1.22929877e-03,
          1.14258821e-03, -6.22921740e-04, 3.36478674e-03,
          7.81348161e-03, 3.12485942e-03, 4.96217981e-03, 7.34991021e-03,
          -1.09242206e-03, 6.21592102e-04, -1.24943536e-03,
          -5.13844565e-03, 1.11065572e-03, 5.22484537e-04,
          2.18853494e-03, 2.89399666e-03, 4.74037457e-04, 1.85468773e-04,
          9.94195216e-05, 7.54853361e-04, -1.25812984e-03,
          7.35425507e-04, -1.59256614e-03, -2.98634218e-03,
          -3.33111244e-03, -1.43371802e-03, -3.99912446e-04,
          1.30860123e-03, -2.27211323e-03, -1.68178871e-03,
          9.85431019e-04, 1.88015751e-03, 2.40056077e-03, 5.05714258e-03,
          1.27686316e-03, 4.50876122e-03, 3.29508027e-03, 6.35034451e-03,
          3.00499261e-03, 2.16450449e-03, 5.01351152e-03, 4.01991094e-03,
          1.61049853e-03, 2.62000505e-03, 3.16544110e-03, 4.66728210e-03,
          2.74645747e-03, 3.19805345e-03, -7.03403261e-04,
          -2.99440091e-03, -4.02825978e-03, -5.93895931e-03,
          -3.16382083e-03, 2.37203451e-04, -3.79222794e-03,
          -6.29083533e-03, -7.25336932e-03, -9.44857579e-03,
          -7.71145523e-03, -8.18478502e-03, -3.70497745e-03,
          -4.16094810e-03, -1.26325828e-03, -7.68696773e-04,
          9.17907455e-04, 3.07684694e-03, 1.45109301e-03, 1.82484277e-03,
          7.75808655e-03, 5.56204747e-03, 5.30506903e-03, 5.75424172e-03,
          1.79606024e-03, 5.41603519e-03, 1.66888966e-03,
          -6.18015928e-03, 9.60788748e-05, -2.15145317e-03,
          -1.45008310e-03, -1.94919179e-03, 2.62913690e-03,
          4.12227091e-04, 3.08399554e-03, 2.94962456e-03, 2.53239227e-03,
          -5.56737301e-04, -3.78198712e-03, -4.94157476e-03,
          -2.33176257e-03, -3.62780644e-03, 6.34245761e-03,
          2.13148771e-03, 6.50550239e-03, 8.31608719e-04, 2.38071941e-03,
          2.85965926e-03, 1.53327404e-04, -2.27536284e-03,
          -3.34094418e-03, -1.28077110e-03, 1.37401512e-03,
          9.01468005e-03, 4.88923443e-03, 3.59381596e-03, 2.78159580e-03,
          1.39503041e-03, 8.82103341e-04, 6.95901763e-05, 8.52451310e-04,
          -9.25938875e-05, -2.88840034e-03, 8.00186186e-04,
          2.18534260e-03, -1.28105446e-03, -6.89499080e-04,
          -4.31171060e-03, -5.64672425e-03, -3.56491981e-03,
          -6.75220042e-03, -8.33800249e-03, -2.47722259e-03,
          -6.24640053e-03, -6.74066693e-03, -6.76668528e-03,
          -2.61052675e-03, -3.35758645e-03, -1.33926619e-03,
          5.11455000e-04, 2.77901563e-04, 2.88063474e-03, 1.61672034e-03,
          -9.56247677e-05, 6.39088778e-03, 5.42268809e-03,
          4.76605166e-03, 4.66748374e-03, -1.51359057e-03,
          5.44359675e-03, 3.84012074e-03, -4.66914568e-03,
          1.72582688e-03, -1.63661048e-03, -1.37082289e-03,
          -4.15397622e-03, -2.68509379e-03, -1.84851827e-03,
          2.44283024e-03, 3.58840218e-03, 4.92913474e-04, 3.42576951e-03,
          4.45827097e-03, 5.04839350e-04, -2.98003270e-03,
          2.10106627e-05, 3.91192315e-03, 1.31786230e-03, 2.89239874e-03,
          3.61168850e-03, 7.79592374e-04, 9.95136332e-04,
          -2.31923349e-03, -3.12686549e-03, 6.23098807e-04,
          -8.32220423e-04, -7.67755148e-04, 6.68100687e-03,
          4.39086813e-04, 3.28388368e-03, 1.42632786e-03, 3.24913720e-03,
          2.92534218e-03, 5.17717504e-04, 1.33388990e-03,
          -3.41903185e-03, -1.98270404e-03, 1.08119554e-03,
          -4.23141086e-04, -2.40934198e-03, 1.00420124e-03,
          4.68001905e-04, -4.11812263e-03, -6.48946827e-03,
          -6.70881802e-03, -6.27956865e-03, -3.81735410e-03,
          -6.39628479e-03, -5.93055086e-03, -7.09548686e-03,
          -3.35233752e-03, -4.37233318e-03, -2.80817650e-04,
          -5.88511721e-05, 8.38907028e-04, 4.05186135e-03,
          1.55551755e-03, 3.88607994e-04, 4.11371235e-03, 3.93853243e-03,
          6.90939697e-03, 2.95266486e-03, -3.26801906e-03,
          1.08300871e-03, 4.29049646e-03, -3.28594097e-03,
          2.85783666e-03, -1.91758084e-03, -4.51613124e-03,
          -2.79920246e-03, -2.24831793e-03, -2.91091786e-03,
          4.26957989e-03, 5.72336046e-03, -1.13633687e-04,
          -3.15287500e-04, -2.50226731e-04, 1.63816020e-03,
          1.93965924e-03, 4.52386634e-03, 2.29361560e-03, 5.46545768e-03,
          2.41804076e-03, -2.25791684e-03, -3.55443731e-03,
          -3.86206293e-03, -1.24738133e-03, -4.45650704e-03,
          9.53987881e-04, -3.74272990e-04, 3.73177743e-03,
          6.61048759e-03, 1.00299680e-04, -5.91812422e-04,
          9.59439611e-04, 8.67496827e-04, 3.46381404e-03, 3.07624624e-03,
          1.87414582e-03, -3.76636744e-03, -5.32476173e-04,
          2.08377163e-03, -3.65251233e-03, 3.10699164e-04,
          -1.50129301e-04, 2.00649069e-04, 1.36330223e-03,
          -1.33962499e-03, -5.51608810e-03, -5.95262682e-04,
          1.93731731e-03, 1.19699253e-04, -3.90559481e-03,
          -7.14280596e-03, -3.91500071e-03, -5.26121259e-03,
          -2.51245219e-03, -1.64264080e-03, 8.29114870e-04,
          2.74485047e-03, 1.09833223e-03, 1.27733173e-03, 2.66716722e-03,
          5.55424998e-03, 8.97674705e-04, -7.27912877e-04,
          -6.88179815e-03, -7.25584163e-04, 2.41559884e-03,
          -4.40334529e-03, -3.67758798e-06, -3.01196706e-03,
          -2.22372054e-03, -3.42295069e-04, -3.78984772e-03,
          -1.51577767e-03, 7.81377498e-03, 4.36340179e-03,
          -1.71748616e-04, -3.41956993e-03, 1.08245679e-03,
          1.81143754e-03, 2.46486114e-03, 4.88652382e-03, 9.40371584e-03,
          4.20318311e-03, -3.48598463e-04, -3.83764971e-03,
          -8.82413238e-04, 5.21741807e-04, -3.53684532e-03,
          -3.41787272e-05, 5.69356326e-03, 4.82369796e-04,
          -2.78072665e-04, 1.92547962e-03, 1.33850728e-03,
          2.41208763e-04, 1.08220801e-03, 6.00857800e-03, 3.98826553e-03,
          3.44869960e-03, 1.29982689e-03, 1.25676626e-03,
          -2.20767851e-03, -3.99204437e-03, -1.82027416e-03,
          -2.43890984e-03, -3.74957133e-04, -1.57087005e-03,
          2.00895523e-03, -1.92057341e-03, -1.06206280e-03,
          1.23276957e-03, 1.72236015e-03, 1.04908540e-03, 2.21196795e-04,
          -2.99594901e-03, -3.70406662e-03, -4.31243051e-03,
          -6.22979412e-03, -4.17426461e-03, 8.90020980e-04,
          1.87550718e-03, 6.79319317e-04, 2.89307139e-03, 2.21790653e-03,
          5.20636234e-03, 7.02055637e-04, -8.16054642e-04,
          -7.07414793e-03, 9.81731457e-04, 2.34331586e-03,
          -1.32217375e-03, 4.21452278e-04, -5.58896980e-04,
          3.77351372e-03, -6.49668160e-04, -2.43465276e-03,
          -8.84828798e-04, 5.61035890e-03, 4.49895207e-03,
          1.00313267e-03, -1.78792549e-03, -1.62275310e-03,
          4.24183847e-04, 5.33029597e-05, 3.09785502e-03, 2.07438925e-03,
          -2.50202313e-04, -1.93348061e-03, -2.60297512e-03,
          -4.07415064e-04, 4.43601655e-03, -3.03293159e-03,
          2.28091842e-03, 3.88745777e-03, 2.27461290e-03,
          -4.47808474e-04, 2.26561306e-03, 6.80567976e-03,
          9.61305224e-04, 3.46914865e-03, 6.20243419e-03,
          -6.14076154e-04, -7.56984996e-03, 1.15973619e-03,
          5.14038373e-03, -5.54703467e-04, -1.63439743e-03,
          -3.64814932e-03, 8.28302058e-04, -7.41199474e-04,
          2.77493056e-03, 2.32004281e-03, 1.63289078e-04,
          -1.80512616e-05, 8.26144591e-04, 8.38817097e-04,
          -4.87649988e-04, -3.44347768e-03, -8.49590520e-04,
          1.05311419e-03, 2.36843340e-03, 1.07186427e-03, 2.06754380e-03,
          8.01192946e-04, 1.19910028e-03, 7.38270872e-04, 3.73122492e-03,
          3.27944336e-03, 6.43220684e-03, 1.21782033e-03,
          -1.23082122e-04, -5.17805107e-03, -3.46181012e-04,
          1.88851613e-03, -2.15006876e-03, 1.17504690e-03,
          -5.28136734e-04, 3.08277411e-03, -3.65251419e-03,
          -3.14975670e-03, -2.73721083e-03, 4.48530866e-03,
          4.76114359e-03, 1.53869006e-03, 9.69428453e-04,
          -4.42663627e-03, -1.15113228e-03, -5.83764457e-04,
          3.94230336e-03, 4.38840501e-03, 2.79042916e-03,
          -1.14778767e-03, -5.34678868e-04, 2.39891140e-03,
          4.95993765e-03, 1.34256377e-03, 5.04524400e-03, 2.45336280e-03,
          2.53062625e-03, -2.00131020e-04, 5.94615424e-03,
          9.79765505e-03, 2.25261785e-03, 7.70360511e-03, 4.64218901e-03,
          3.51782143e-03, -1.15272740e-03, 1.44091854e-03,
          6.53472356e-03, -6.53692579e-04, -2.15229066e-03,
          -9.23248532e-04, 3.39949178e-03, 1.76130584e-03,
          2.27806205e-03, 1.70645874e-03, 1.34330976e-03,
          -2.50226967e-05, -3.92092741e-04, -6.78803190e-04,
          7.63126300e-04, -9.19484301e-04, -1.25301199e-03,
          -7.08004576e-04, 3.98163032e-03, 3.33722588e-03,
          6.17038272e-03, 1.25636079e-03, 1.49835215e-03,
          -7.38808245e-04, 1.90788822e-03, 2.23286520e-03,
          4.43253247e-03, 3.15310829e-03, 5.72625257e-04,
          -3.03239375e-03, 4.61781776e-04, 4.37562261e-03,
          4.72913845e-04, 2.69536185e-03, 1.54338160e-03, 5.76456450e-03,
          -5.07450663e-03, -4.23507812e-03, -1.44468364e-03,
          3.78188281e-03, 3.48799257e-03, -4.57123067e-04,
          3.11600813e-03, -3.37751838e-03, 1.64253710e-04,
          3.67879961e-03, 4.66555217e-03, 3.01144645e-03,
          -2.36364920e-03, -8.87269678e-04, -3.25775566e-03,
          -9.17247380e-04, 2.80627841e-03, 5.48029505e-03,
          -1.26727286e-03, -4.06265521e-04, 1.97371491e-03,
          -1.18730438e-03, 5.41303353e-03, 7.73039414e-03,
          -2.16182365e-04, 1.09248674e-02, 2.91066477e-03,
          2.91001692e-04, 1.28303329e-03, 3.05737345e-03, 4.66677826e-03,
          -5.24171664e-05, -9.47063818e-05, 1.57904392e-03,
          3.38517275e-04, 2.29717372e-03, 2.30332185e-03, 4.46978630e-03,
          -9.64531384e-04, -3.20262834e-03, 3.50814895e-04,
          2.22868100e-03, 2.85081216e-03, -2.05958961e-03,
          -1.58316968e-03, 6.21489162e-05, 2.54413416e-03,
          1.31181162e-03, 5.30304667e-03, 2.67555634e-03, 1.89220693e-04,
          -3.36368976e-04, 6.25975954e-04, 1.16789492e-03,
          2.93722190e-03, 4.13907412e-03, 3.79375229e-03,
          -3.20923957e-03, 2.67070928e-03, 5.08680567e-03,
          7.47782760e-04, 2.01838324e-03, 1.18960987e-03, 7.08540482e-03,
          -3.64116230e-03, 2.41554721e-04, 1.68815290e-03,
          6.24740310e-03, 3.30360862e-03, -2.75930099e-04,
          2.75764207e-04, 2.05570668e-05, -4.87202546e-04,
          5.74383000e-03, 5.58609562e-03, 3.60350893e-03, 1.16687710e-03,
          -9.79518751e-04, -3.06935259e-03, -4.86381352e-03,
          -3.70465545e-03, -7.20498938e-05, 1.42360397e-03,
          -6.60159742e-04, 2.94622988e-03, 1.70022991e-04,
          6.40605902e-03, 6.34670164e-03, 1.56882999e-03, 2.42399378e-03,
          3.22054839e-04, 4.39476571e-04, 2.76195467e-03, 2.90323258e-03,
          3.99611425e-03, 1.18141703e-03, 1.36482075e-03, 3.00208596e-03,
          7.66023237e-04, 3.02605797e-03, 2.23378185e-03, 2.77520297e-03,
          1.74421570e-04, 1.53526338e-03, 1.44444799e-04, 2.02005729e-03,
          9.72882088e-04, 2.96592159e-04, -1.99891324e-03,
          1.74738292e-04, 4.10100818e-03, 7.76921678e-03, 6.39085425e-04,
          1.92481885e-03, -2.41967340e-04, 4.63943137e-03,
          3.47571168e-03, 1.79596909e-03, 3.68692912e-03, 4.44488926e-03,
          3.34125129e-03, -2.21674331e-04, 3.73243028e-03,
          5.14228735e-03, 2.31352937e-03, 1.74284272e-03,
          -2.08487239e-04, 4.78756893e-03, -6.82832673e-03,
          -1.06192695e-03, 1.54239160e-03, 6.76971814e-03,
          5.21239266e-03, -1.55572360e-03, 1.78711407e-03,
          2.10155908e-04, 4.62541077e-03, 6.00533094e-03, 5.42286178e-03,
          2.61916430e-03, -1.05999189e-03, -1.60253054e-04,
          -3.89143103e-03, -1.80879259e-03, -4.44185734e-03,
          -4.04539052e-03, 4.77037742e-04, 4.55475785e-03,
          3.20232078e-03, 2.93831597e-03, 7.45322462e-03, 8.55036266e-03,
          5.80199121e-04, 1.61954213e-03, 1.55836460e-04, 5.78513609e-05,
          2.35937093e-03, 3.88265867e-03, 2.77374382e-03,
          -2.06111930e-03, -5.05413045e-04, 2.09270371e-03,
          1.65518362e-03, 1.86358858e-03, 3.78673314e-03, 8.14556144e-04,
          5.06258802e-03, -4.78700909e-04, -1.13184343e-03,
          -1.57524738e-03, 1.98491011e-03, 9.06198577e-04,
          -8.33679514e-04, 4.48837673e-04, 5.38354856e-04,
          4.84163035e-03, 4.87712212e-03, 7.09367450e-04,
          -1.39796955e-03, 3.93434275e-05, -3.46096558e-03,
          3.28003895e-03, -8.28227086e-04, 2.21308647e-03,
          -4.63058794e-04, -5.58182190e-04, 3.75344674e-03,
          4.27867752e-03, 1.14189163e-04, 1.27110584e-03, 1.73421251e-03,
          -1.17847510e-03, -3.12615116e-03, -3.36158118e-04,
          1.81552232e-03, 6.34912262e-03, 6.72413828e-03, 2.12346273e-03,
          2.91455560e-03, -1.49969535e-03, 5.68549708e-03,
          5.27851237e-03, 5.48588624e-03, 3.12799262e-03,
          -1.74136006e-03, 4.48909821e-03, -1.78113428e-03,
          -1.35730871e-03, -4.32986626e-03, -1.24843733e-03,
          5.03108511e-03, 5.29429829e-03, 5.94707113e-03, 6.22610236e-03,
          6.78937742e-03, 5.89488773e-03, 1.18527026e-03, 2.95647653e-03,
          2.90872506e-03, -1.13474387e-04, 7.05111027e-03,
          2.80140270e-03, 1.39522320e-03, -5.84560586e-03,
          -3.49401543e-03, 1.07484893e-03, -6.68145891e-04,
          -9.89670050e-04, 1.66477577e-03, 8.73205776e-04,
          -1.17209787e-03, -1.60164933e-03, -2.13996717e-03,
          -1.40006619e-03, 5.55408013e-04, -2.42884256e-04,
          -4.92799969e-04, -5.79415588e-04, -1.03658310e-03,
          -5.71610115e-04, 8.91587348e-04, 1.58297201e-03,
          -1.04675698e-03, -9.39586840e-04, 1.35763607e-03,
          4.00846405e-03, 3.25625273e-03, -1.19459277e-04,
          2.16673245e-03, -3.34955822e-03, 7.03923870e-03,
          4.68267826e-03, 3.49950336e-04, 1.91444915e-03, 2.07727938e-03,
          -2.05608411e-03, -3.68312863e-03, -4.02447098e-04,
          -1.23816042e-03, 6.30848063e-03, 2.37416476e-03,
          4.78159310e-03, 1.87018327e-03, 2.37279036e-03, 6.92430511e-03,
          8.03004019e-03, 6.61986414e-03, 5.46188746e-03, 1.94182748e-03,
          5.66790067e-03, 2.27206200e-03, 1.14308600e-03, 4.03999962e-04,
          4.12316201e-03, 6.44231727e-03, 8.34378321e-03, 7.14359619e-03,
          6.21305825e-03, 7.06782006e-03, 4.11704043e-03,
          -1.15642126e-03, 7.65926903e-03, 3.47227440e-03,
          1.67459087e-03, 5.43239713e-03, 5.58810029e-03,
          -2.40903487e-03, -6.59339363e-03, -1.67142111e-03,
          6.23080297e-04, -1.59476651e-03, -7.86048011e-04,
          1.66446320e-03, 2.07165000e-03, 1.37707638e-03,
          -1.86133676e-03, -3.87108256e-03, -4.30612918e-03,
          1.06160541e-03, -8.18945584e-04, -6.54483913e-04,
          -2.15100031e-03, -6.46140033e-05, 1.23802631e-03,
          -3.06143280e-04, 2.10467773e-03, -6.20303559e-04,
          -3.50279058e-03, 9.86639876e-04, 3.16012697e-03,
          3.22006317e-03, -3.96643503e-04, 1.80443248e-03,
          -5.56949433e-03, 2.19830847e-03, 3.88666335e-03,
          1.09935575e-03, 1.92353968e-03, 2.82226270e-03,
          -3.72531451e-03, -7.54194800e-03, 3.20750463e-04,
          1.76227861e-03, 2.03094282e-03, 2.53923703e-03, 2.84377509e-03,
          5.50090475e-03, 6.98116282e-03, 7.76318787e-03, 9.31594241e-03,
          9.86269675e-03, 2.85651209e-03, 2.26196391e-03, 5.12058241e-03,
          2.73015443e-03, 2.20561097e-03, 1.62457011e-03, 3.98610998e-03,
          6.21612417e-03, 8.34163930e-03, 7.62192439e-03, 6.18096674e-03,
          3.62552074e-03, 4.51937551e-03, 2.04943819e-03, 1.06787484e-03,
          2.06937548e-03, 2.50530150e-03, 5.26447641e-03, 4.69248556e-03,
          -9.48671601e-04, -2.67528230e-03, -1.19757093e-03,
          -2.61458306e-04, -1.48142935e-04, -1.97909470e-03,
          1.70002703e-03, 3.87584255e-03, 4.77841590e-03, 2.81519402e-04,
          -7.58242502e-04, -2.75608245e-03, -4.11432295e-04,
          -1.34284448e-04, 9.47000284e-04, 6.60569756e-04,
          2.31273472e-03, 2.73445924e-03, 4.23168438e-03, 2.11911555e-03,
          -1.82355689e-06, -5.11260051e-03, 9.99248354e-04,
          4.37709922e-03, 2.64994055e-03, 5.14144253e-04,
          -1.31318753e-04, -4.91428189e-03, 2.50073988e-03,
          4.51915944e-03, -3.75301228e-03, 6.38696540e-04,
          -3.05232778e-03, -1.72851421e-03, -3.71689512e-03,
          8.99056846e-04, 5.80130471e-03, 8.59220792e-03, 4.70140344e-03,
          1.90180214e-03, 7.74650043e-03, 1.23887584e-02, 9.84304212e-03,
          8.12383369e-03, 3.37544712e-03, 5.57543943e-03, 5.65580279e-03,
          7.64485821e-03, 2.42708577e-03, 4.03617695e-03, 1.12632033e-03,
          8.03235220e-04, 2.62153219e-03, 6.82486501e-03, 3.82311223e-03,
          5.82010439e-03, 3.90804466e-03, 6.39248779e-03, 5.29487478e-03,
          5.20190364e-03, 5.20493882e-03, 3.48750525e-03, 5.02111390e-03,
          2.80473218e-03, 2.40397480e-04, 2.19812756e-03, 1.88387942e-03,
          -1.33001537e-03, -1.92055391e-04, 2.47224030e-04,
          3.25760455e-03, 1.38034101e-03, -1.20944995e-03,
          -2.32021572e-04, -1.61479518e-03, 7.02861638e-04,
          -2.76293955e-04, -7.96429871e-04, -2.16177339e-03,
          -8.92218959e-04, 3.29933478e-03, 3.28470184e-03,
          1.68721552e-03, -3.21470325e-05, -1.35126960e-04,
          -2.05517584e-03, 2.84867268e-03, 4.27812198e-03,
          3.51079344e-03, 2.06654822e-03, 2.63279362e-04,
          -3.17425258e-03, 4.51524695e-03, 3.65667720e-03,
          -3.55185615e-03, -6.58203673e-04, -5.08545758e-03,
          -1.20948604e-03, -3.67294950e-03, -7.82507588e-04,
          3.59380152e-03, 1.11537548e-02, 4.96319495e-03, 9.86591680e-04,
          6.29491452e-03, 1.11772213e-02, 1.07273562e-02, 6.15806598e-03,
          1.52292405e-03, 2.72708782e-03, 1.41468784e-03, 3.10446578e-03,
          1.90273183e-03, 4.29730071e-03, 5.06861694e-03,
          -1.17105177e-04, 3.93735012e-03, 3.89548438e-03,
          7.07405340e-03, 6.76638028e-03, 5.56642609e-03, 6.36319770e-03,
          3.86871654e-03, 6.39075763e-04, 2.88064010e-03, 1.19618175e-03,
          3.50921741e-03, -1.31176319e-03, 3.40111856e-03,
          2.38417974e-03, 2.65158270e-03, -3.86321032e-03,
          -3.66757857e-03, -1.84461370e-03, 1.22970203e-03,
          2.09788777e-04, -3.25884810e-03, -2.31895223e-03,
          -1.34074572e-03, 1.04501599e-03, -2.91599799e-03,
          -5.96256170e-04, -2.06207600e-03, -1.67107699e-03,
          3.11851013e-03, 3.34969722e-03, 5.51856763e-04, 2.79622246e-03,
          1.13077962e-03, -1.62587967e-03, -5.78703301e-04,
          1.09316513e-03, 7.66322191e-04, 1.62027543e-04,
          -4.30192892e-03, -8.00528680e-04, -8.44578535e-05,
          1.11266237e-03, 6.92629628e-03, 8.78168445e-04,
          -3.41890333e-03, 1.73216031e-04, -1.19308254e-03,
          5.46522715e-05, 1.16781564e-03, 4.89161117e-03, 5.43850102e-03,
          -8.95771489e-04, 9.42798797e-03, 8.38810112e-03,
          9.47787892e-03, 7.56310206e-03, 2.88609345e-03, 4.45878133e-03,
          4.98082442e-03, 4.69812797e-03, -4.62757656e-04,
          3.84253263e-03, 8.00475362e-04, -8.57075269e-04,
          1.23229541e-03, 3.05696786e-03, 5.17686782e-03, 3.59842274e-03,
          3.64937796e-03, 4.89865849e-03, 3.89617588e-03, 2.74802442e-03,
          -3.24923336e-03, 1.32076826e-03, 3.53150140e-03,
          -1.31908734e-03, 2.16288632e-03, 2.68299854e-03,
          1.82726793e-03, -2.18636240e-03, -4.03025188e-03,
          -6.28067937e-04, -2.95787700e-03, -3.16594681e-03,
          -2.30168272e-03, -2.40290537e-03, 4.33148598e-05,
          5.58329957e-05, -3.52289365e-03, -6.64639403e-04,
          -1.00992154e-03, -8.41284578e-04, 4.64253407e-03,
          3.75652453e-03, 9.96574410e-04, 2.43814406e-03, 2.47121230e-03,
          -5.12417965e-03, -6.88662520e-03, 1.40214886e-03,
          1.51110813e-03, 1.10619282e-03, -3.89778055e-03,
          4.32787987e-04, 1.76458643e-03, 6.02552341e-03, 5.31374523e-03,
          3.50046600e-03, 1.50212797e-03, 1.92484469e-03, 2.40139454e-03,
          2.64371769e-03, 3.76067800e-03, 4.87710815e-03, 7.22135976e-03,
          5.51232882e-03, 4.93606552e-03, 4.60597640e-03, 6.36639213e-03,
          8.12860392e-03, 3.60699184e-03, 3.65697825e-03, 4.81942482e-03,
          2.24667438e-03, -5.62421221e-04, 9.13767493e-04,
          -5.42520487e-04, -7.68707192e-04, 3.11519043e-03,
          4.00294643e-03, 2.32674880e-03, 9.65076208e-04, 4.60800203e-03,
          4.63789515e-03, 1.42257498e-03, -2.58140266e-03,
          -5.13898092e-04, 2.46440992e-03, 4.04958101e-03,
          -4.10849490e-04, 3.71716078e-03, 8.86629219e-04,
          2.13641184e-03, -1.18602614e-03, -4.04329691e-03,
          -6.63579092e-04, -9.28165915e-04, -3.94975254e-03,
          -4.40157717e-03, -3.57850175e-03, 5.88205468e-04,
          -8.38940090e-04, -2.93405843e-03, -2.02925457e-03,
          -1.51043676e-03, -1.07945036e-03, 2.33360869e-03,
          4.03016666e-03, 9.53458308e-04, 2.23943076e-04, 3.48726753e-05,
          -3.35266441e-03, -3.28182802e-03, -2.82529113e-03,
          3.79348313e-03, 9.95244482e-04, -3.60486819e-03,
          5.32625825e-04, 5.22319181e-03, 6.43289182e-03, 4.11814125e-03,
          4.20749304e-04, -2.69282522e-04, 2.80154846e-03,
          1.75439660e-03, 4.03789338e-03, 5.68085257e-03, 3.46581778e-03,
          1.01538384e-02, 4.39744350e-03, 7.05711683e-03, 5.64172538e-03,
          4.52025607e-03, 2.83353892e-03, 1.38087291e-03, 3.04490211e-03,
          5.52690635e-03, 4.66369372e-03, 1.42688421e-03, 2.65508192e-03,
          3.34678101e-03, 2.69810989e-04, -4.58144641e-05,
          1.79420237e-03, 2.47240835e-03, 9.60853067e-04, 2.54963548e-03,
          4.85672522e-03, -4.98209090e-04, -1.87572476e-03,
          -5.21239592e-04, 4.03553993e-03, 5.33395121e-03,
          -3.49280337e-04, 2.29405984e-03, 1.98571314e-03,
          3.50379501e-03, -3.19879665e-03, -2.52278754e-03,
          -1.55759917e-04, 4.39648051e-04, -2.51906877e-03,
          -2.79377843e-03, -2.40905583e-03, 1.86427520e-03,
          -1.10245892e-03, -5.17924898e-04, -1.25136343e-03,
          -2.16439692e-03, -1.32174173e-03, 1.21018384e-03,
          4.74983780e-03, 6.73429167e-04, -4.38375631e-04,
          1.22056378e-03, -2.50443537e-03, 4.10059327e-03,
          3.89090972e-03, 3.41677386e-03, 2.97536422e-03,
          -4.18027164e-03, 3.29254288e-03, 3.63922026e-03,
          1.19822379e-03, 4.14529350e-04, -1.66414643e-03,
          -1.23214500e-03, 1.12670148e-03, 3.97703750e-03,
          5.31392964e-03, 6.90554874e-03, 5.16446307e-03, 6.05003489e-03,
          5.60186431e-03, 6.61908416e-03, 2.42165825e-03, 3.86280403e-03,
          1.55620417e-03, 1.22869009e-04, 6.18754566e-05, 2.35062232e-03,
          1.39038835e-03, 2.39742571e-03, 4.00800165e-03, 1.90200866e-03,
          2.39702640e-03, 7.02893012e-04, 3.24160769e-03, 4.38630581e-03,
          2.94013240e-04, 3.05344467e-04, 6.13830285e-04, 1.18058152e-03,
          -2.29402236e-03, 2.14088522e-03, 4.05929470e-03,
          6.49034046e-03, 5.00323309e-04, -4.71385079e-04,
          9.65159910e-04, -1.86857578e-04, -3.76955513e-03,
          -5.62364794e-03, -2.76864739e-03, -1.58218888e-03,
          -3.46193579e-03, -1.64234312e-03, -3.07844079e-04,
          1.86725007e-03, -4.61051532e-04, -1.96725494e-04,
          -7.86739402e-04, -1.32760650e-03, 5.67434981e-05,
          4.81023191e-04, 1.70564570e-03, 1.06484268e-03, 1.61790894e-03,
          3.06774964e-05, 2.70522828e-03, 4.44108620e-03, 3.09612788e-03,
          4.47629718e-03, 3.25099379e-03, -3.66846658e-03,
          2.73637311e-03, 1.83372945e-03, 3.12263053e-03, 1.10908307e-03,
          -3.18706012e-03, -2.26975488e-03, 2.03037029e-03,
          2.22873618e-03, 8.07120930e-03, 4.97710938e-03, 5.40706934e-03,
          5.16158948e-03, 3.20221577e-03, 5.32200839e-03, 5.04372083e-03,
          4.06043511e-03, 4.19228291e-03, 1.51222444e-03, 1.92920168e-04,
          -3.11620487e-03, 3.14835270e-05, -1.43158995e-03,
          3.86942585e-04, 1.11839769e-03, 2.50726053e-03, 2.46987795e-03,
          2.48543452e-03, 6.32941315e-04, -2.30259844e-04,
          2.39978166e-04, 2.63695628e-03, -7.37837516e-04,
          -2.67126423e-04, -1.53636863e-03, 3.66225909e-03,
          6.48044655e-03, 1.99400703e-03, 2.76444207e-05, 3.96996358e-04,
          -2.34817946e-03, -3.70537420e-03, -4.16992418e-03,
          -2.27555167e-03, -2.69844383e-03, -3.89501452e-03,
          -3.67532042e-03, -7.40828516e-04, 1.70205196e-03,
          -8.34796228e-04, 1.78960283e-04, -9.79480217e-04,
          -1.72037794e-03, -1.38670881e-03, -2.26881448e-03,
          -4.49097453e-04, 6.39252074e-04, 4.35332116e-03,
          3.75401322e-03, 4.83473111e-03, 3.39276227e-03, 3.65978642e-03,
          3.31182894e-03, 1.50833605e-03, -2.94040865e-03,
          4.32639010e-03, 3.95500846e-03, 3.04082036e-03, 1.05066015e-03,
          2.64943298e-03, -2.56087561e-03, -1.00510893e-03,
          2.24213465e-03, 3.66305117e-03, 4.04301519e-03, 5.97879244e-03,
          3.88466427e-03, 6.69326633e-03, 4.58135735e-03, 4.71703243e-03,
          4.49186051e-03, 3.42325913e-03, 3.34556680e-03,
          -3.22074885e-03, -3.64971580e-03, 8.54303944e-04,
          4.00357239e-04, -8.83811328e-04, -2.60547298e-04,
          9.55385796e-04, 3.67196277e-03, 1.70713803e-03, 2.21389229e-03,
          4.17702598e-03, 3.54875019e-03, 1.53483392e-03,
          -5.72550634e-04, 7.71823281e-04, 4.05461906e-04,
          2.27231719e-03, 2.57225940e-03, -1.11617194e-03,
          -1.16143504e-03, 5.16301079e-04, -1.37411791e-03,
          -2.68340157e-03, -2.39625573e-03, -4.98836581e-03,
          -2.96997419e-03, -3.26250773e-03, -4.84140776e-03,
          -3.04555357e-03, -5.03121177e-04, -2.45699589e-03,
          -6.16012490e-04, -8.69343698e-04, -1.80687767e-03,
          -2.86315079e-03, -3.98840988e-03, -1.53683766e-03,
          -1.14069635e-03, 1.55249564e-03, 3.12118069e-03,
          3.08704702e-03, 4.02807537e-03, 5.92903048e-03, 4.80138604e-03,
          -3.64407524e-03, -5.45765448e-04, 3.90868168e-03,
          3.86489276e-03, 4.92215343e-03, 2.13594083e-03,
          -5.36391628e-04, -5.27900702e-04, -2.27744668e-03,
          7.39998068e-04, 2.89111561e-03, 3.72266187e-03, 3.06085125e-03,
          4.46220255e-03, 7.01217493e-03, 7.70635717e-03, 6.78298762e-03,
          4.73918347e-03, 3.55750229e-03, 1.29791256e-03,
          -7.62054464e-04, -1.23991841e-03, 3.43792519e-04,
          8.20804446e-04, 4.67623700e-04, 2.46053496e-05, 2.24525086e-03,
          4.02679155e-03, 1.26408413e-03, -1.03070238e-03,
          -7.52270687e-04, 1.28938316e-03, 1.47152029e-03,
          -7.97140819e-04, 1.64139073e-03, 1.49905251e-03,
          2.69049616e-03, 4.07918915e-03, 2.24633794e-03, 6.48452959e-04,
          2.90389813e-04, -3.66568402e-03, -1.31726975e-03,
          -3.79774207e-03, -3.74962925e-03, -2.20302399e-03,
          -2.57122819e-03, -4.63652425e-03, -3.82332061e-03,
          -4.12276713e-03, -3.50521156e-03, -2.59511941e-03,
          -3.75002506e-03, -4.25547268e-03, -5.69394557e-03,
          -6.35011308e-03, -5.15350467e-03, -1.57145504e-03,
          1.40600046e-03, 2.23577372e-03, 3.56042571e-03, 4.95110452e-03,
          2.22539552e-03, 3.41797923e-03, -9.59512952e-04,
          -7.47556842e-05, 4.78293281e-03, 3.98246339e-03,
          3.10440524e-03, 1.87073427e-03, 2.26193713e-03,
          -1.75455422e-03, -9.95107926e-04, -8.99915001e-04,
          2.06664647e-03, 2.74707004e-03, 3.57405702e-03, 7.37312308e-04,
          3.64339328e-03, 4.59833210e-03, 5.81889180e-03, 4.73617390e-03,
          2.47590942e-03, 2.80155079e-03, 1.66729989e-03, 2.42908462e-03,
          1.80401796e-04, 9.86286206e-04, 1.02388614e-03, 1.01760274e-03,
          2.66567222e-03, 4.18755226e-03, 4.51907935e-03, 5.79745065e-05,
          -2.46053864e-03, 2.05611228e-03, -3.26636422e-04,
          -1.66179705e-03, -1.89300466e-04, 1.33652706e-03,
          3.80043685e-03, 3.55262309e-03, 2.03605345e-03, 2.96554156e-03,
          2.06253305e-03, -2.58096843e-03, -3.14430613e-03,
          -3.65714217e-03, -1.72833935e-03, -1.13937457e-03,
          -2.83659948e-03, -2.49377941e-03, -6.83090836e-03,
          -3.97398882e-03, -3.39186587e-03, -2.72027892e-03,
          -5.01206983e-03, -4.88326466e-03, -4.72119031e-03,
          -5.54810464e-03, -5.13973646e-03, -2.63929367e-03,
          -3.35230841e-03, -8.05713178e-04, 8.73370795e-04,
          2.29103304e-03, 7.64568045e-04, -9.53109935e-04,
          -2.41020593e-04, -2.13423555e-04, 5.16419159e-03,
          3.55853443e-03, 5.17977076e-03, 3.59157030e-03, 1.73128117e-03,
          1.29393162e-03, -1.10524800e-03, 2.14415789e-03,
          1.56399992e-03, 1.87324535e-03, 1.82615255e-03, 2.53662234e-03,
          2.29954626e-03, 5.88674890e-03, 3.16052185e-03, 4.60339943e-03,
          2.46225786e-03, 2.82959803e-03, 4.12549730e-03, 1.48340559e-03,
          2.71634315e-04, 1.26245420e-03, -2.02044786e-04,
          -6.93471462e-04, 2.90967082e-03, 4.98052780e-03,
          4.06147586e-03, 1.36430247e-03, -1.73983083e-03,
          5.11977298e-04, -2.06697057e-03, -1.82319817e-03,
          2.25846699e-04, 6.29138376e-04, 1.39925384e-03, 2.07436009e-04,
          2.31611193e-03, 2.80974060e-03, 6.59188139e-04,
          -3.02201044e-03, -3.80821573e-03, -3.01956059e-03,
          -6.26825378e-04, -3.09935142e-03, -3.20820091e-03,
          -2.84625031e-03, -2.88845738e-03, -3.85590270e-03,
          -2.73758965e-03, -1.54644321e-03, -4.61530220e-03,
          -4.68047056e-03, -4.20802739e-03, -5.08393440e-03,
          -5.61660156e-03, -1.99283753e-03, 4.16133844e-04,
          -3.44422850e-04, 2.95771286e-03, 3.83311720e-03,
          2.07895599e-03, 1.64733152e-03, 3.91835725e-04, 1.00619136e-03,
          3.81677691e-03, 6.98739290e-03, 2.12076865e-03, 3.25105526e-03,
          3.82489827e-03, 2.65029701e-03, 9.67132917e-04, 1.90421438e-03,
          2.92378291e-03, 1.62654335e-03, 2.56135873e-03, 2.21254653e-03,
          1.14613771e-03, 6.32825075e-03, 3.64986528e-03, 4.65895189e-03,
          3.37018585e-03, 4.82567400e-03, 5.10317972e-03, 2.39147432e-03,
          -7.16646628e-06, 3.43100401e-03, 2.08626594e-03,
          1.55549904e-03, 3.52690811e-03, 6.96469238e-03, 5.89766260e-03,
          3.60855297e-03, -8.50263983e-04, -2.05509644e-03,
          -1.60812473e-04, -1.63492421e-03, -1.84043201e-05,
          -7.25027203e-05, 1.65672402e-03, -3.30782263e-04,
          9.80791519e-04, -4.47710278e-04, -4.73304361e-04,
          -9.49408335e-04, -4.39062342e-03, -3.82589572e-03,
          -9.06687055e-04, -3.14607099e-03, -1.80619513e-03,
          -4.15737100e-04, -1.89646066e-03, -2.59043206e-03,
          -2.42167781e-03, -3.03222565e-03, -3.24051548e-03,
          -1.42661820e-03, -2.47648568e-03, -2.43285997e-03,
          -2.40117428e-03, -2.12628511e-03, -3.23442102e-04,
          1.81825540e-03, 3.46730277e-03, 3.60789243e-03, 2.20934581e-03,
          2.29333498e-04, -4.35334659e-04, -1.07951964e-04,
          4.07532556e-03, 3.98744736e-03, 3.20256897e-03, 3.48060345e-03,
          4.64147376e-03, 4.73578973e-03, 2.27361219e-03, 3.19454120e-03,
          3.40364664e-03, 3.04950587e-03, 4.11793636e-03, 2.77468143e-03,
          4.01155511e-03, 5.48938522e-03, 6.57431828e-03, 6.23810850e-03,
          5.78709552e-03, 4.18944610e-03, 3.67601449e-03, 3.90641158e-03,
          -1.30072737e-03, 6.39481295e-05, 9.45471402e-05,
          2.00009672e-03, 4.78426367e-03, 5.38682099e-03, 7.13657169e-03,
          2.86685652e-03, 1.47143484e-03, 2.15672283e-03,
          -2.44325050e-03, -1.00986403e-03, -1.37291430e-03,
          -4.43988421e-04, 1.06902873e-04, 4.10100292e-05,
          2.15118797e-03, 1.31650083e-03, 2.32553706e-04,
          -1.87853235e-03, -5.22723747e-03, -4.75787697e-03,
          1.32240204e-03, -4.65818262e-03, -3.13319848e-03,
          3.33488395e-04, -1.39242015e-03, -5.26565709e-04,
          -2.05656816e-03, -2.10894644e-03, -1.59466022e-03,
          -3.27604543e-03, -2.87963892e-03, -2.50958977e-03,
          -2.78060674e-03, -2.04933877e-03, -3.75219039e-04,
          1.54641760e-03, 4.90173884e-03, 1.63989095e-03,
          -1.59564044e-03, 3.75457661e-04, 1.72466948e-03,
          1.45232538e-03, 3.82203260e-03, 6.14135573e-03, 3.75063997e-03,
          5.08568622e-03, 5.89773897e-03, 3.91516974e-03, 2.82127224e-03,
          1.96544104e-03, 3.53333470e-03, 2.92471005e-03, 2.68092263e-03,
          2.94194161e-03, 4.47446946e-03, 4.19234298e-03, 6.29612291e-03,
          5.81750786e-03, 3.79764661e-03, 1.65578420e-03, 1.79443124e-03,
          1.74550840e-03, -2.62768543e-03, -1.14044768e-03,
          1.40942240e-04, -7.13049230e-05, 3.08032357e-03,
          5.12527954e-03, 3.05341720e-03, 2.13167886e-03,
          -8.56551866e-04, -1.81115954e-03, -2.02175276e-03,
          -2.14025239e-03, -2.50162557e-03, -3.30314157e-04,
          2.18606042e-03, 8.34954553e-04, 2.14410620e-03, 8.08815006e-04,
          -7.83710202e-05, -7.71798543e-04, -3.24751949e-03,
          -5.28771523e-03, -2.31014472e-03, -5.93128428e-03,
          -6.11569209e-04, -2.73109484e-03, -1.60720118e-03,
          -3.04557313e-03, -3.37876799e-03, -1.73524744e-03,
          1.62484951e-03, -2.35506520e-03, -2.76732026e-03,
          -1.70717679e-03, -6.88297267e-04, -2.44726846e-03,
          2.70107063e-03, 3.72497342e-03, 1.32952875e-03,
          -3.79083038e-04, 4.10884910e-04, 4.60230419e-03,
          4.41524055e-04, -1.30128535e-03, 1.80751504e-03,
          3.97072593e-03, 1.04398518e-04, 1.56215788e-03, 3.43425618e-03,
          4.24645608e-03, 2.76024849e-03, 2.92544835e-03, 2.92852684e-03,
          3.73104517e-03, 4.04655235e-03, 3.98689997e-04, 2.63230666e-03,
          6.38069445e-03, 7.69646931e-03, 7.25089805e-03, 4.43153968e-03,
          2.81590968e-03, 2.02811416e-03, 3.32520995e-03,
          -2.08209385e-03, -8.70258606e-04, 7.78822578e-04,
          -2.07677041e-03, 2.06069346e-03, 3.13217868e-03,
          3.67529015e-03, 2.69213249e-03, 1.87028397e-03, 5.39560628e-04,
          -1.26692961e-04, -7.54842360e-04, 2.45493284e-04,
          8.66581278e-04, 3.67755070e-03, 2.97115854e-04, 1.90225325e-03,
          1.72184198e-03, 1.63850095e-03, 1.54448044e-03, 1.77911395e-04,
          -5.04339486e-03, -2.00149334e-05, -4.16558795e-03,
          -2.63801380e-03, -3.66464094e-03, -4.58089262e-03,
          -6.99689204e-04, 1.51664997e-03, -4.84360789e-04,
          -4.01589292e-04, 7.41690339e-04, -2.90702097e-03,
          -1.71702181e-03, -7.74628425e-04, -1.66315248e-03,
          -1.12125243e-04, 1.13632204e-03, 1.09526876e-03,
          -8.43242975e-04, 7.17786979e-03, 4.32329206e-03,
          1.52970420e-03, 1.19844615e-03, 1.26556354e-03, 1.50293706e-03,
          9.91967740e-04, 2.48659379e-03, 2.79459218e-03, 4.73394198e-03,
          2.00010370e-03, 2.77432590e-03, 2.21363292e-03, 1.90938415e-03,
          3.08450102e-03, 1.40502537e-03, 6.74118171e-04, 3.13958945e-03,
          7.34715816e-03, 4.65326430e-03, 3.49176978e-03, 2.98571144e-03,
          3.96697130e-03, 2.25010584e-03, 2.72776326e-03,
          -1.86833506e-03, -2.83958914e-04, 1.06383616e-03,
          4.24092729e-03, 4.14651865e-03, 6.05772715e-03, 8.76136182e-04,
          2.42597261e-03, 1.13785046e-03, 1.95306656e-03, 2.09630467e-03,
          2.23674043e-03, 2.68494384e-03, 3.62766162e-03, 2.31787656e-03,
          4.00131289e-03, 2.88617657e-03, 4.18745587e-03, 4.31977352e-03,
          3.51851666e-03, -1.04372180e-03, -8.15262261e-04,
          -1.55038619e-03, -1.84257003e-03, -2.26102397e-03,
          -2.96542305e-03, -4.48209653e-03, -3.33918072e-03,
          1.15634808e-04, 5.78129373e-04, 7.36568691e-05, 1.44659483e-04,
          7.13945265e-05, 6.18641963e-04, -2.58032756e-04,
          -1.72462652e-03, -1.87430333e-03, 8.59578664e-04,
          6.07728446e-03, 4.70547518e-03, 4.38938336e-03, 5.55885665e-04,
          2.24009666e-04, 9.18589591e-04, 3.10942298e-03, 3.94366868e-03,
          1.95756252e-03, 2.63668830e-03, 5.12890657e-03, 4.80197510e-03,
          3.44186835e-03, 1.92198728e-03, 2.69443193e-03, 2.78706173e-03,
          7.72636908e-04, 1.78174363e-04, -7.74483560e-05,
          1.42263796e-03, 4.04800056e-03, 4.08225693e-03, 2.65606027e-03,
          2.24080146e-03, 3.38060060e-03, 3.37422197e-03,
          -1.09644126e-04, -8.72219753e-05, 1.01621414e-03,
          2.70585413e-03, 3.67405266e-03, 6.51987502e-03, 3.06221191e-03,
          4.01921896e-03, 1.97731168e-03, 1.19224517e-03, 3.26751615e-03,
          2.49542273e-03, 2.93421815e-03, 4.04456770e-03, 2.77111609e-03,
          2.92533077e-03, 4.12290404e-03, 5.10190520e-03, 4.98783076e-03,
          4.01432998e-03, -3.09130381e-04, -6.52043149e-04,
          -1.21567934e-03, 2.22996066e-04, -8.07153701e-04,
          -1.05976919e-03, -1.53881707e-03, -4.33245720e-03,
          -4.27883584e-03, -4.37810086e-03, 4.17981384e-04,
          1.30062737e-03, 1.17656030e-03, 3.03495326e-03,
          -3.15994868e-04 ]
   uncompressed_sv_total: 12
   uncompressed_support_vectors:
      - [ 4.22310770e-01, 6.21513963e-01, 6.61354601e-01, 5.85657358e-01,
          4.50199217e-01, 2.11155385e-01, 2.07171321e-01, 1.07569724e-01,
          5.97609580e-02, 1.15537852e-01, 1.47410363e-01, 1.15537852e-01,
          9.96015966e-02, 1.23505980e-01, 1.19521916e-01, 9.56175327e-02,
          7.17131495e-02, 1.63346618e-01, 2.43027896e-01, 1.51394427e-01,
          1.83266938e-01, 1.75298810e-01, 1.35458171e-01, 2.58964151e-01,
          2.50996023e-01, 3.90438259e-01, 4.10358578e-01, 2.70916343e-01,
          2.07171321e-01, 1.99203193e-01, 1.75298810e-01, 1.83266938e-01,
          2.54980087e-01, 3.90438259e-01, 4.74103600e-01, 4.90039855e-01,
          6.33466125e-01, 6.89243078e-01, 8.76494050e-01, 7.09163368e-01,
          3.82470131e-01, 3.14741045e-01, 5.53784847e-01, 6.17529869e-01,
          3.94422323e-01, 5.13944268e-01, 4.86055791e-01, 3.02788854e-01,
          3.74502003e-01, 5.53784847e-01, 5.97609580e-01, 4.10358578e-01,
          3.18725109e-01, 2.78884470e-01, 2.43027896e-01, 3.54581684e-01,
          3.62549812e-01, 3.86454195e-01, 3.46613556e-01, 3.30677301e-01,
          3.38645428e-01, 3.18725109e-01, 2.27091640e-01, 2.35059768e-01,
          3.66533875e-01, 5.17928302e-01, 3.94422323e-01, 3.78486067e-01,
          2.98804790e-01, 1.87251002e-01, 1.31474108e-01, 3.18725109e-02,
          2.78884470e-02, 9.16334689e-02, 1.67330682e-01, 1.67330682e-01,
          1.11553788e-01, 1.11553788e-01, 1.35458171e-01, 1.11553788e-01,
          8.76494050e-02, 1.27490044e-01, 2.31075704e-01, 2.07171321e-01,
          2.19123513e-01, 2.27091640e-01, 1.87251002e-01, 1.79282874e-01,
          3.10756981e-01, 3.50597620e-01, 3.74502003e-01, 3.22709173e-01,
          2.39043832e-01, 2.19123513e-01, 1.99203193e-01, 1.51394427e-01,
          2.11155385e-01, 3.10756981e-01, 4.34262961e-01, 4.62151408e-01,
          4.90039855e-01, 5.69721103e-01, 7.41035879e-01, 6.25498056e-01,
          4.70119536e-01, 3.82470131e-01, 5.17928302e-01, 5.93625546e-01,
          4.50199217e-01, 5.57768941e-01, 6.05577707e-01, 3.98406386e-01,
          4.06374514e-01, 6.09561801e-01, 6.53386474e-01, 4.62151408e-01,
          3.94422323e-01, 3.90438259e-01, 3.46613556e-01, 4.22310770e-01,
          4.42231089e-01, 4.46215153e-01, 3.82470131e-01, 3.38645428e-01,
          3.22709173e-01, 3.02788854e-01, 2.70916343e-01, 2.78884470e-01,
          3.58565748e-01, 3.46613556e-01, 2.86852598e-01, 3.10756981e-01,
          2.23107576e-01, 1.23505980e-01, 7.96812773e-02, 3.98406386e-03,
          0., 9.16334689e-02, 2.03187257e-01, 1.75298810e-01,
          1.03585660e-01, 1.23505980e-01, 2.07171321e-01, 1.47410363e-01,
          1.35458171e-01, 1.59362555e-01, 1.99203193e-01, 2.07171321e-01,
          2.62948215e-01, 2.86852598e-01, 2.54980087e-01, 2.66932279e-01,
          3.66533875e-01, 3.38645428e-01, 3.50597620e-01, 3.54581684e-01,
          2.47011960e-01, 2.23107576e-01, 2.27091640e-01, 1.95219129e-01,
          2.47011960e-01, 2.35059768e-01, 3.86454195e-01, 4.46215153e-01,
          4.38247025e-01, 4.94023919e-01, 5.13944268e-01, 5.25896430e-01,
          4.66135472e-01, 4.46215153e-01, 5.09960175e-01, 6.09561801e-01,
          5.61753035e-01, 6.17529869e-01, 6.49402380e-01, 5.01992047e-01,
          4.42231089e-01, 6.41434312e-01, 6.61354601e-01, 5.33864558e-01,
          4.74103600e-01, 4.78087664e-01, 4.78087664e-01, 4.78087664e-01,
          4.58167344e-01, 4.38247025e-01, 3.90438259e-01, 3.54581684e-01,
          3.30677301e-01, 2.98804790e-01, 3.10756981e-01, 3.14741045e-01,
          4.62151408e-01, 1.39442235e-01, 1.95219129e-01, 1.63346618e-01,
          1.63346618e-01, 3.58565748e-02, 4.38247025e-02, 7.96812773e-02,
          3.98406386e-02, 1.23505980e-01, 1.75298810e-01, 1.39442235e-01,
          3.58565748e-02, 1.19521916e-01, 2.39043832e-01, 1.99203193e-01,
          3.02788854e-01, 3.46613556e-01, 2.94820726e-01, 2.31075704e-01,
          2.82868534e-01, 2.90836662e-01, 2.50996023e-01, 3.38645428e-01,
          3.66533875e-01, 2.78884470e-01, 2.58964151e-01, 3.22709173e-01,
          2.78884470e-01, 2.35059768e-01, 2.07171321e-01, 2.50996023e-01,
          2.82868534e-01, 2.23107576e-01, 2.74900407e-01, 3.58565748e-01,
          3.90438259e-01, 4.38247025e-01, 4.42231089e-01, 4.18326706e-01,
          4.26294833e-01, 4.70119536e-01, 5.65737069e-01, 5.65737069e-01,
          5.81673324e-01, 5.45816779e-01, 6.05577707e-01, 4.94023919e-01,
          4.54183280e-01, 4.74103600e-01, 5.53784847e-01, 5.33864558e-01,
          4.90039855e-01, 5.57768941e-01, 5.49800813e-01, 4.82071728e-01,
          3.82470131e-01, 3.30677301e-01, 3.26693237e-01, 3.14741045e-01,
          3.10756981e-01, 2.94820726e-01, 3.46613556e-01, 3.50597620e-01,
          5.13944268e-01, 2.94820726e-01, 1.55378491e-01, 1.39442235e-01,
          9.96015966e-02, 1.59362555e-02, 3.58565748e-02, 4.78087664e-02,
          5.97609580e-02, 5.97609580e-02, 9.96015966e-02, 6.77290857e-02,
          2.78884470e-02, 9.56175327e-02, 3.14741045e-01, 3.54581684e-01,
          4.14342642e-01, 3.82470131e-01, 2.98804790e-01, 2.07171321e-01,
          2.66932279e-01, 3.26693237e-01, 2.82868534e-01, 3.38645428e-01,
          3.38645428e-01, 2.78884470e-01, 2.50996023e-01, 2.78884470e-01,
          2.62948215e-01, 2.58964151e-01, 2.27091640e-01, 2.90836662e-01,
          3.38645428e-01, 1.99203193e-01, 2.23107576e-01, 2.50996023e-01,
          2.78884470e-01, 3.42629492e-01, 3.94422323e-01, 3.86454195e-01,
          4.26294833e-01, 4.94023919e-01, 5.29880524e-01, 5.29880524e-01,
          5.17928302e-01, 5.29880524e-01, 4.90039855e-01, 4.26294833e-01,
          4.02390450e-01, 5.01992047e-01, 5.05976081e-01, 4.82071728e-01,
          4.86055791e-01, 5.41832685e-01, 5.25896430e-01, 4.34262961e-01,
          3.62549812e-01, 3.14741045e-01, 3.42629492e-01, 3.26693237e-01,
          3.22709173e-01, 3.18725109e-01, 3.38645428e-01, 2.82868534e-01,
          3.62549812e-01, 2.94820726e-01, 1.95219129e-01, 1.39442235e-01,
          4.38247025e-02, 2.39043832e-02, 0., 2.78884470e-02,
          3.98406386e-02, 0., 5.97609580e-02, 6.77290857e-02,
          2.78884470e-02, 8.36653411e-02, 3.06772918e-01, 3.86454195e-01,
          3.82470131e-01, 2.94820726e-01, 2.47011960e-01, 2.11155385e-01,
          2.86852598e-01, 3.42629492e-01, 3.02788854e-01, 3.30677301e-01,
          2.98804790e-01, 2.90836662e-01, 2.86852598e-01, 2.70916343e-01,
          2.43027896e-01, 2.62948215e-01, 2.54980087e-01, 2.86852598e-01,
          3.06772918e-01, 2.47011960e-01, 2.23107576e-01, 2.47011960e-01,
          2.50996023e-01, 2.15139449e-01, 3.26693237e-01, 3.62549812e-01,
          3.74502003e-01, 4.34262961e-01, 4.26294833e-01, 4.50199217e-01,
          5.05976081e-01, 4.46215153e-01, 3.94422323e-01, 3.54581684e-01,
          4.26294833e-01, 4.42231089e-01, 4.38247025e-01, 4.22310770e-01,
          4.18326706e-01, 5.05976081e-01, 4.66135472e-01, 3.46613556e-01,
          2.98804790e-01, 2.98804790e-01, 3.42629492e-01, 3.30677301e-01,
          3.30677301e-01, 3.54581684e-01, 3.54581684e-01, 2.19123513e-01,
          2.58964151e-01, 1.79282874e-01, 2.54980087e-01, 1.87251002e-01,
          1.71314746e-01, 3.98406386e-03, 2.78884470e-02, 0.,
          7.96812773e-03, 1.19521916e-02, 8.76494050e-02, 2.27091640e-01,
          7.56972134e-02, 1.79282874e-01, 2.66932279e-01, 3.06772918e-01,
          1.91235065e-01, 1.19521916e-01, 1.39442235e-01, 2.23107576e-01,
          3.94422323e-01, 4.66135472e-01, 4.18326706e-01, 3.78486067e-01,
          3.22709173e-01, 3.10756981e-01, 2.74900407e-01, 2.90836662e-01,
          2.90836662e-01, 2.62948215e-01, 2.50996023e-01, 2.50996023e-01,
          2.31075704e-01, 2.62948215e-01, 2.82868534e-01, 2.74900407e-01,
          2.78884470e-01, 2.39043832e-01, 2.43027896e-01, 3.14741045e-01,
          3.34661365e-01, 3.94422323e-01, 4.14342642e-01, 4.30278897e-01,
          7.72908390e-01, 7.72908390e-01, 3.62549812e-01, 3.38645428e-01,
          4.10358578e-01, 4.82071728e-01, 3.74502003e-01, 3.74502003e-01,
          3.38645428e-01, 2.82868534e-01, 3.10756981e-01, 3.14741045e-01,
          3.18725109e-01, 3.38645428e-01, 3.38645428e-01, 3.30677301e-01,
          3.30677301e-01, 3.62549812e-01, 3.94422323e-01, 2.31075704e-01,
          2.50996023e-01, 1.87251002e-01, 2.54980087e-01, 1.27490044e-01,
          9.16334689e-02, 2.39043832e-02, 5.17928302e-02, 1.19521916e-02,
          1.19521916e-02, 3.98406386e-03, 1.67330682e-01, 3.22709173e-01,
          1.55378491e-01, 1.75298810e-01, 1.87251002e-01, 1.31474108e-01,
          1.63346618e-01, 1.99203193e-01, 2.98804790e-01, 3.42629492e-01,
          4.14342642e-01, 4.82071728e-01, 5.17928302e-01, 4.58167344e-01,
          4.38247025e-01, 4.90039855e-01, 3.78486067e-01, 2.90836662e-01,
          2.82868534e-01, 2.74900407e-01, 2.94820726e-01, 2.58964151e-01,
          2.74900407e-01, 2.70916343e-01, 2.90836662e-01, 3.46613556e-01,
          3.26693237e-01, 2.66932279e-01, 2.07171321e-01, 2.70916343e-01,
          2.66932279e-01, 3.02788854e-01, 3.82470131e-01, 4.26294833e-01,
          8.36653411e-01, 8.88446212e-01, 6.45418346e-01, 3.50597620e-01,
          3.58565748e-01, 5.81673324e-01, 4.26294833e-01, 3.14741045e-01,
          2.62948215e-01, 2.19123513e-01, 2.82868534e-01, 3.42629492e-01,
          3.14741045e-01, 3.46613556e-01, 3.22709173e-01, 3.50597620e-01,
          3.46613556e-01, 3.66533875e-01, 4.26294833e-01, 2.54980087e-01,
          2.50996023e-01, 2.74900407e-01, 1.87251002e-01, 1.99203193e-02,
          1.59362555e-02, 0., 7.56972134e-02, 1.59362555e-02,
          1.19521916e-02, 2.78884470e-02, 1.47410363e-01, 2.54980087e-01,
          1.63346618e-01, 1.75298810e-01, 1.15537852e-01, 1.35458171e-01,
          1.27490044e-01, 1.99203193e-01, 3.58565748e-01, 4.06374514e-01,
          3.58565748e-01, 4.38247025e-01, 5.41832685e-01, 4.98007983e-01,
          5.17928302e-01, 6.57370567e-01, 6.53386474e-01, 4.10358578e-01,
          2.82868534e-01, 2.74900407e-01, 3.02788854e-01, 2.54980087e-01,
          2.74900407e-01, 2.62948215e-01, 3.26693237e-01, 3.70517939e-01,
          4.22310770e-01, 3.46613556e-01, 2.27091640e-01, 1.87251002e-01,
          2.03187257e-01, 2.74900407e-01, 3.82470131e-01, 7.01195240e-01,
          9.08366561e-01, 9.32270944e-01, 8.32669377e-01, 4.06374514e-01,
          5.65737069e-01, 7.29083657e-01, 4.18326706e-01, 3.02788854e-01,
          2.19123513e-01, 2.27091640e-01, 3.14741045e-01, 3.30677301e-01,
          3.06772918e-01, 3.34661365e-01, 3.50597620e-01, 3.86454195e-01,
          3.70517939e-01, 3.78486067e-01, 4.58167344e-01, 3.62549812e-01,
          2.62948215e-01, 3.02788854e-01, 1.59362555e-01, 2.39043832e-02,
          1.59362555e-02, 5.97609580e-02, 9.56175327e-02, 4.78087664e-02,
          2.39043832e-02, 4.78087664e-02, 1.23505980e-01, 1.87251002e-01,
          1.19521916e-01, 8.36653411e-02, 1.47410363e-01, 1.35458171e-01,
          1.15537852e-01, 9.56175327e-02, 2.62948215e-01, 3.42629492e-01,
          3.34661365e-01, 4.02390450e-01, 5.37848592e-01, 4.30278897e-01,
          4.46215153e-01, 6.85258985e-01, 7.84860611e-01, 7.09163368e-01,
          4.90039855e-01, 3.06772918e-01, 2.86852598e-01, 2.74900407e-01,
          3.38645428e-01, 3.30677301e-01, 3.30677301e-01, 8.68525922e-01,
          9.28286910e-01, 9.28286910e-01, 9.48207200e-01, 2.94820726e-01,
          2.31075704e-01, 2.43027896e-01, 3.66533875e-01, 8.96414399e-01,
          9.76095676e-01, 9.60159421e-01, 8.96414399e-01, 4.10358578e-01,
          6.57370567e-01, 7.68924356e-01, 3.86454195e-01, 2.54980087e-01,
          2.19123513e-01, 2.66932279e-01, 3.30677301e-01, 3.06772918e-01,
          3.30677301e-01, 3.10756981e-01, 4.26294833e-01, 4.74103600e-01,
          4.38247025e-01, 4.18326706e-01, 6.17529869e-01, 8.92430305e-01,
          3.34661365e-01, 3.02788854e-01, 2.19123513e-01, 2.78884470e-02,
          7.96812773e-02, 8.76494050e-02, 4.38247025e-01, 7.09163368e-01,
          3.18725109e-01, 1.03585660e-01, 1.19521916e-01, 2.43027896e-01,
          4.94023919e-01, 4.58167344e-01, 3.94422323e-01, 2.23107576e-01,
          1.51394427e-01, 7.96812773e-02, 1.47410363e-01, 2.07171321e-01,
          3.94422323e-01, 4.90039855e-01, 4.14342642e-01, 3.58565748e-01,
          4.58167344e-01, 5.49800813e-01, 6.81274891e-01, 7.37051845e-01,
          5.61753035e-01, 4.30278897e-01, 3.38645428e-01, 3.26693237e-01,
          4.30278897e-01, 4.78087664e-01, 5.41832685e-01, 8.56573701e-01,
          9.44223166e-01, 9.56175327e-01, 9.60159421e-01, 9.40239072e-01,
          3.90438259e-01, 2.58964151e-01, 3.62549812e-01, 9.32270944e-01,
          9.84063745e-01, 9.60159421e-01, 7.92828679e-01, 3.98406386e-01,
          6.97211146e-01, 7.13147402e-01, 3.58565748e-01, 2.47011960e-01,
          2.03187257e-01, 3.02788854e-01, 3.46613556e-01, 3.14741045e-01,
          3.34661365e-01, 3.58565748e-01, 4.94023919e-01, 5.33864558e-01,
          4.74103600e-01, 3.66533875e-01, 6.41434312e-01, 9.40239072e-01,
          2.82868534e-01, 2.47011960e-01, 2.70916343e-01, 2.78884470e-02,
          7.17131495e-02, 1.23505980e-01, 6.73306823e-01, 5.81673324e-01,
          6.01593614e-01, 6.57370567e-01, 6.21513963e-01, 4.66135472e-01,
          7.68924356e-01, 8.56573701e-01, 3.82470131e-01, 5.93625546e-01,
          5.73705196e-01, 4.54183280e-01, 7.96812773e-02, 1.23505980e-01,
          3.58565748e-01, 4.38247025e-01, 3.94422323e-01, 3.58565748e-01,
          4.78087664e-01, 5.77689290e-01, 4.98007983e-01, 5.21912336e-01,
          5.17928302e-01, 4.78087664e-01, 4.06374514e-01, 3.70517939e-01,
          4.34262961e-01, 5.13944268e-01, 7.45019913e-01, 8.44621539e-01,
          9.12350655e-01, 9.68127489e-01, 9.80079710e-01, 9.16334689e-01,
          8.24701190e-01, 2.43027896e-01, 2.98804790e-01, 8.92430305e-01,
          1., 8.88446212e-01, 6.21513963e-01, 3.98406386e-01,
          5.97609580e-01, 6.13545835e-01, 3.50597620e-01, 2.03187257e-01,
          2.54980087e-01, 3.26693237e-01, 3.22709173e-01, 3.18725109e-01,
          3.10756981e-01, 4.14342642e-01, 5.45816779e-01, 4.94023919e-01,
          4.18326706e-01, 3.26693237e-01, 5.17928302e-01, 9.44223166e-01,
          2.07171321e-01, 1.87251002e-01, 2.27091640e-01, 6.37450218e-02,
          9.96015966e-02, 2.31075704e-01, 6.65338635e-01, 6.21513963e-01,
          5.49800813e-01, 5.13944268e-01, 4.90039855e-01, 5.29880524e-01,
          6.61354601e-01, 7.17131495e-01, 6.17529869e-01, 3.02788854e-01,
          2.35059768e-01, 2.94820726e-01, 7.13147402e-01, 6.73306823e-01,
          6.57370567e-01, 3.66533875e-01, 3.10756981e-01, 2.78884470e-01,
          4.58167344e-01, 5.29880524e-01, 4.66135472e-01, 4.30278897e-01,
          4.70119536e-01, 5.09960175e-01, 4.58167344e-01, 3.82470131e-01,
          3.42629492e-01, 4.10358578e-01, 7.56972134e-01, 7.88844645e-01,
          8.64541888e-01, 9.20318723e-01, 9.36254978e-01, 9.04382467e-01,
          8.80478144e-01, 2.07171321e-01, 2.50996023e-01, 7.64940262e-01,
          9.44223166e-01, 7.33067751e-01, 9.48207200e-01, 9.32270944e-01,
          9.04382467e-01, 8.60557795e-01, 3.46613556e-01, 2.82868534e-01,
          3.06772918e-01, 3.74502003e-01, 3.38645428e-01, 3.54581684e-01,
          3.22709173e-01, 3.98406386e-01, 4.74103600e-01, 4.26294833e-01,
          3.18725109e-01, 2.82868534e-01, 2.90836662e-01, 5.65737069e-01,
          2.54980087e-01, 2.90836662e-01, 3.62549812e-01, 4.02390450e-01,
          2.90836662e-01, 3.30677301e-01, 5.49800813e-01, 5.77689290e-01,
          4.82071728e-01, 5.01992047e-01, 5.29880524e-01, 5.53784847e-01,
          5.85657358e-01, 6.49402380e-01, 5.49800813e-01, 1.55378491e-01,
          1.39442235e-01, 2.54980087e-01, 2.98804790e-01, 6.53386474e-01,
          6.97211146e-01, 8.12749028e-01, 5.45816779e-01, 2.27091640e-01,
          3.22709173e-01, 4.42231089e-01, 4.62151408e-01, 3.66533875e-01,
          3.82470131e-01, 4.78087664e-01, 4.94023919e-01, 3.94422323e-01,
          3.50597620e-01, 3.74502003e-01, 6.73306823e-01, 7.33067751e-01,
          7.72908390e-01, 8.68525922e-01, 8.84462178e-01, 8.88446212e-01,
          8.44621539e-01, 2.23107576e-01, 2.15139449e-01, 4.18326706e-01,
          8.80478144e-01, 9.24302816e-01, 8.88446212e-01, 9.44223166e-01,
          8.16733122e-01, 8.92430305e-01, 8.44621539e-01, 3.66533875e-01,
          4.22310770e-01, 3.94422323e-01, 3.74502003e-01, 3.74502003e-01,
          3.66533875e-01, 3.90438259e-01, 3.78486067e-01, 3.70517939e-01,
          2.94820726e-01, 2.74900407e-01, 3.62549812e-01, 3.54581684e-01,
          3.62549812e-01, 4.42231089e-01, 5.93625546e-01, 6.01593614e-01,
          4.34262961e-01, 4.06374514e-01, 4.42231089e-01, 4.58167344e-01,
          4.74103600e-01, 5.13944268e-01, 5.41832685e-01, 5.45816779e-01,
          6.13545835e-01, 6.13545835e-01, 4.22310770e-01, 3.06772918e-01,
          1.27490044e-01, 6.37450218e-02, 1.23505980e-01, 2.23107576e-01,
          5.97609580e-01, 5.69721103e-01, 8.32669377e-01, 7.72908390e-01,
          5.73705196e-01, 4.50199217e-01, 3.98406386e-01, 3.06772918e-01,
          3.58565748e-01, 4.26294833e-01, 3.86454195e-01, 3.10756981e-01,
          2.98804790e-01, 4.02390450e-01, 5.89641452e-01, 6.45418346e-01,
          6.97211146e-01, 7.80876517e-01, 7.84860611e-01, 7.84860611e-01,
          7.72908390e-01, 4.50199217e-01, 2.35059768e-01, 3.54581684e-01,
          8.12749028e-01, 8.32669377e-01, 8.52589667e-01, 9.24302816e-01,
          9.68127489e-01, 8.56573701e-01, 8.76494050e-01, 3.78486067e-01,
          4.50199217e-01, 4.58167344e-01, 4.74103600e-01, 3.58565748e-01,
          3.50597620e-01, 3.74502003e-01, 3.74502003e-01, 3.46613556e-01,
          3.22709173e-01, 2.70916343e-01, 3.98406386e-01, 4.86055791e-01,
          3.38645428e-01, 4.90039855e-01, 5.49800813e-01, 4.66135472e-01,
          4.06374514e-01, 3.86454195e-01, 4.62151408e-01, 5.01992047e-01,
          4.98007983e-01, 5.33864558e-01, 5.81673324e-01, 5.93625546e-01,
          6.85258985e-01, 5.89641452e-01, 4.30278897e-01, 2.98804790e-01,
          2.19123513e-01, 9.96015966e-02, 5.57768941e-02, 6.77290857e-02,
          6.49402380e-01, 5.69721103e-01, 5.69721103e-01, 7.96812773e-01,
          8.52589667e-01, 8.08764935e-01, 4.42231089e-01, 2.43027896e-01,
          4.06374514e-01, 3.94422323e-01, 2.94820726e-01, 1.47410363e-01,
          1.87251002e-01, 3.22709173e-01, 5.57768941e-01, 5.89641452e-01,
          6.61354601e-01, 7.25099623e-01, 7.29083657e-01, 7.56972134e-01,
          7.92828679e-01, 6.45418346e-01, 3.58565748e-01, 8.04780900e-01,
          7.60956168e-01, 8.36653411e-01, 8.56573701e-01, 9.16334689e-01,
          9.20318723e-01, 7.84860611e-01, 7.76892424e-01, 8.44621539e-01,
          3.66533875e-01, 5.37848592e-01, 6.45418346e-01, 4.90039855e-01,
          4.30278897e-01, 3.70517939e-01, 3.42629492e-01, 4.22310770e-01,
          4.94023919e-01, 5.49800813e-01, 5.77689290e-01, 6.41434312e-01,
          4.22310770e-01, 4.90039855e-01, 4.26294833e-01, 5.57768941e-01,
          6.65338635e-01, 6.89243078e-01, 6.17529869e-01, 5.25896430e-01,
          5.45816779e-01, 6.13545835e-01, 6.77290857e-01, 6.85258985e-01,
          6.89243078e-01, 6.09561801e-01, 4.46215153e-01, 3.18725109e-01,
          3.18725109e-01, 1.71314746e-01, 8.76494050e-02, 9.56175327e-02,
          1.99203193e-01, 4.42231089e-01, 4.78087664e-01, 2.43027896e-01,
          4.06374514e-01, 8.08764935e-01, 8.68525922e-01, 7.25099623e-01,
          4.98007983e-01, 4.94023919e-01, 2.47011960e-01, 1.63346618e-01,
          2.07171321e-01, 2.03187257e-01, 4.90039855e-01, 5.33864558e-01,
          5.81673324e-01, 6.65338635e-01, 6.89243078e-01, 7.13147402e-01,
          7.37051845e-01, 6.41434312e-01, 4.66135472e-01, 7.64940262e-01,
          7.13147402e-01, 7.96812773e-01, 8.40637445e-01, 8.00796866e-01,
          8.04780900e-01, 9.08366561e-01, 8.08764935e-01, 7.68924356e-01,
          2.86852598e-01, 5.33864558e-01, 6.65338635e-01, 5.81673324e-01,
          4.90039855e-01, 5.61753035e-01, 6.41434312e-01, 7.29083657e-01,
          7.76892424e-01, 7.80876517e-01, 7.68924356e-01, 7.29083657e-01,
          4.86055791e-01, 2.94820726e-01, 3.62549812e-01, 6.33466125e-01,
          6.33466125e-01, 6.41434312e-01, 6.01593614e-01, 5.37848592e-01,
          6.37450218e-01, 6.61354601e-01, 6.37450218e-01, 6.57370567e-01,
